<?xml version="1.0"?>
<opencv_storage>
<opencv_ml_svm>
  <format>3</format>
  <svmType>C_SVC</svmType>
  <kernel>
    <type>LINEAR</type></kernel>
  <C>1.</C>
  <term_criteria><epsilon>1.1920928955078125e-07</epsilon>
    <iterations>1000</iterations></term_criteria>
  <var_count>432</var_count>
  <class_count>2</class_count>
  <class_labels type_id="opencv-matrix">
    <rows>2</rows>
    <cols>1</cols>
    <dt>i</dt>
    <data>
      0 1</data></class_labels>
  <sv_total>1</sv_total>
  <support_vectors>
    <_>
      -0.158414587 -0.0982924253 -0.0382013507 0.000136345392
      -0.0659091547 0.0446404517 0.0695477873 0.0467902683 0.0139340116
      -0.163632616 -0.0381878689 -0.00389655796 -0.00491782464
      -0.0246564988 0.0793255046 0.0561031029 0.0374372564 -0.0762238726
      0.0270883031 0.0191006884 0.0878627673 0.0263925809 -0.105986089
      0.0519760288 0.0855085403 0.0945896432 0.139275536 0.0714793503
      0.0704123601 0.112473674 0.0615385137 -0.0034964676 0.0535930172
      0.0929868445 0.13249217 0.149433747 -0.0545099601 -0.0123785483
      0.0120776575 0.00452571968 -0.0678747147 -0.00911740493
      0.0081831608 0.0663236231 -0.0584372729 -0.0668031052
      -0.0358434841 -0.0271161329 -0.0843321756 -0.0981426984
      -9.78510361e-05 0.0264588408 0.0680915341 -0.065388225 0.218411818
      0.143488809 0.0917620361 -0.0277309157 -0.142734468 0.0128677692
      0.0903438553 0.127080739 0.229387656 0.168931007 0.121233582
      0.0573055483 -0.0745287314 -0.186018944 -0.00918050203
      0.0695707351 0.139009848 0.179964989 -0.04222719 0.113810763
      0.105019048 0.0131349349 -0.0739246458 -0.0362855159 0.0125360098
      0.0120328628 -0.0397367328 -0.0155505398 0.066681236 0.0525292754
      -0.0187346991 -0.0712593496 -0.000869025884 0.0311804339
      0.00131837872 -0.00319621409 0.0299937632 0.14944379 0.0756144375
      -0.0206031241 -0.102094747 -0.0416962653 0.0020724677 0.0594063625
      0.0660501495 0.0418886207 0.10792736 0.0240781512 0.0234279446
      -0.0772696286 -0.0184649397 0.0623866394 0.0718383789 0.0701883212
      -0.104521289 0.145569637 0.0869151503 0.0110770017 -0.0405195206
      0.00396776479 0.0533139743 -0.00372604234 -0.105377078
      -0.0438356288 0.110379189 0.118317448 0.00331196655 -0.0367595106
      0.0391749963 0.0666017383 0.0297421589 -0.0633880571 0.0411785059
      0.161922872 0.0726850256 -0.036861036 -0.177438781 -0.0195525847
      0.0360793918 0.0676038116 0.0365256108 0.0328502655 0.130036995
      0.0952204987 -0.0559213385 -0.0965386778 -0.00961017702
      0.089140743 0.113960244 0.0495975688 -0.0703164414 0.0547844656
      0.0525268577 0.0298708696 -0.0860831961 -0.0615582094 0.0234588068
      -0.0251068734 -0.0736744106 -0.0367132053 0.0590066351
      0.0690078065 0.00385345961 -0.0723071545 -0.0245271903
      0.000681487611 -0.00693229912 -0.0708412454 0.103967205
      0.121218525 0.0956050903 0.00962635409 -0.174786255 -0.0733029321
      0.101788826 0.109523721 0.0435406826 0.146774173 0.138838276
      0.110227793 0.0399383977 -0.161540031 -0.0261893701 0.0645194352
      0.0582510047 0.0897077546 -0.0229232088 0.0826440901 0.0602801219
      0.0597647876 -0.00353742065 -0.0426274352 -0.0763078704
      -0.093966119 -0.0580412708 0.0139983632 0.103104621 0.0389068611
      0.0282280147 -0.0783880949 -0.100039981 -0.0926328003
      -0.0598193519 -0.0346075445 0.146267056 0.146549702 0.0980007052
      0.0560169667 -0.0551751368 -0.0625802204 0.0497549251 0.0750277191
      0.0607870258 0.147293463 0.13076815 0.0759153366 0.0368597247
      -0.0854657888 -0.0789794996 -0.0132228527 0.035747394 0.0609098449
      0.074927859 0.0943190008 0.0982709229 0.0974732116 -0.00264914404
      -0.0340573266 0.0152118774 0.0534665771 -0.00160565809
      0.0358364023 0.103888303 0.0962137058 0.0905199274 0.035863433
      -0.0372199006 0.00639115833 0.109792598 -0.00206583715
      -0.0270050652 0.0928361341 0.0877479538 0.112710215 -0.0565422997
      0.00371882156 -0.0544222668 -0.0670181438 -0.0961141512
      -0.0674908161 0.136006251 0.111130416 0.105291463 -0.00125392317
      -0.0199260339 -0.0506847985 -0.0452125743 -0.0659053922
      0.185539529 0.120594613 0.0805714279 0.0271822829 -0.108677931
      0.0397176147 0.0816438198 0.0506235324 0.0943809897 0.136586279
      0.132066503 0.0894899368 0.0043606502 -0.159878716 -0.0616481602
      0.0834802985 0.112101234 0.0934382752 -0.0917514265 0.0515093617
      0.07988327 0.0756666437 0.0543729402 0.0163116716 -0.0201637708
      -0.0263231155 -0.100503445 -0.078776665 0.0170426592 0.0551779605
      0.058029823 -0.0666425824 -0.0739885345 -0.0334077738 0.0412021801
      -0.0959849283 0.00215392141 0.082736671 0.0398186632 -0.072701253
      -0.12751478 -0.00253823167 0.0895721391 0.0702172443
      -0.00338101247 0.00229903799 0.092472814 0.051289957 0.0338809602
      -0.0669757053 0.0589426048 0.0824897587 0.0604558587 -0.034537334
      -0.0757242218 0.0948176086 0.040187493 0.0195226446 -0.0338068716
      0.0309212822 0.0682551339 0.0993989334 -0.0637220144 -0.0605853349
      0.0552593358 0.0757229477 0.0726836771 -0.0285469219 0.0275460649
      0.0612156726 0.0981813073 -0.059811946 0.0454212427 0.0843641385
      0.0442375354 -0.00429050066 -0.107458718 -0.0395133756
      0.0341268629 0.0608613454 0.0461787358 0.0190811362 0.0866884515
      0.0675311536 -0.0273882486 -0.111316636 -0.0624241978 0.038574867
      0.0999986231 0.0624771342 -0.0871781781 0.0287959911 0.0374117568
      0.0267851613 -0.00650499854 0.0155144893 0.008391927 0.020342499
      -0.074760437 -0.0832559913 0.0154337361 0.0662551969 0.0308998004
      -0.0308585409 -0.02960038 0.00638758671 0.0523599014 -0.0358981155
      0.103742287 0.108542331 0.063269712 -0.061627645 -0.160205334
      -0.003731139 0.0589128695 0.128472447 0.0989298448 0.171213612
      0.100276321 0.0736984536 -0.0570388511 -0.125572667 -0.0135332998
      0.0941700563 0.100606196 0.162982568 -0.0313785188 0.0336909257
      0.0091520017 -0.053743545 -0.0364369527 0.0293385368 0.033230152
      0.0924842209 -0.076144807 -0.0130495727 -0.0644378886
      -0.0211911742 0.00114096899 -0.0598525666 0.00952622294
      0.0554227866 0.0804421008 -0.0276136324 0.00429119775 0.0285120811
      0.0729039088 -0.00195579673 -0.0653219149 0.0143167749
      0.0927067995 0.107404411 0.103674121 0.0473031625 0.0569457598
      0.0911484212 -0.00280278362 -0.111373864 0.0896953717 0.0976187885
      0.108392246 0.133438542 -0.0450979024 -0.0702403709 -0.0440871306
      -0.0692710727 -0.0487457886 0.0100215441 0.0536704101 0.137452245
      0.0396161899 -0.0291266833 -0.115091324 -0.0698894113 -0.136262923
      -0.10478133 0.0488105752 0.11799778 0.133218929 0.106015801</_></support_vectors>
  <uncompressed_sv_total>24</uncompressed_sv_total>
  <uncompressed_support_vectors>
    <_>
      0.167364299 0.102431946 0.0682981759 0.104304455 0.166822404
      0.174888849 0.160144046 0.148320526 0.202187866 0.204186559
      0.132333755 0.0616780333 0.111555718 0.187461272 0.126755059
      0.161674291 0.213521585 0.213521585 0.213521585 0.183902949
      0.0943681821 0.107804976 0.129748806 0.205976188 0.179497987
      0.161498547 0.213521585 0.193893448 0.187989891 0.109811746
      0.127398372 0.170670956 0.189057857 0.213521585 0.213521585
      0.180343017 0.228748322 0.147819698 0.0962329581 0.115929209
      0.119271651 0.126105845 0.0946577415 0.228748322 0.228748322
      0.228748322 0.187322482 0.118928693 0.0965542421 0.129702836
      0.158456415 0.109750479 0.228748322 0.228748322 0.219518423
      0.114421099 0.0969215482 0.122490883 0.108347028 0.130767792
      0.118677437 0.228748322 0.144329563 0.228748322 0.191386849
      0.132037118 0.109627083 0.12025933 0.134824172 0.173579246
      0.228748322 0.228748322 0.235347077 0.136073589 0.105312616
      0.114582129 0.117912762 0.10135483 0.156991363 0.235347077
      0.235347077 0.235347077 0.120201051 0.0636670366 0.113852814
      0.137409508 0.109150693 0.153654635 0.230842024 0.235347077
      0.131525382 0.118202247 0.147149011 0.0894469172 0.0822117627
      0.186418504 0.235347077 0.235347077 0.210391611 0.131667048
      0.0881049633 0.105063982 0.0612368658 0.115065455 0.218446374
      0.235347077 0.235347077 0.144542679 0.195299625 0.155824736
      0.122956343 0.0773383975 0.149253115 0.10078083 0.169011742
      0.203559741 0.219251946 0.193551689 0.163846135 0.140651271
      0.143054396 0.177884996 0.047702495 0.201375976 0.219251946
      0.219251946 0.158408418 0.148316249 0.167650685 0.121513918
      0.137477785 0.151145607 0.131774187 0.140462816 0.112844273
      0.160878465 0.121082321 0.140348926 0.17167978 0.219251946
      0.219251946 0.219251946 0.207435295 0.173539624 0.240486965
      0.151319847 0.0727490783 0.0597424358 0.0603813864 0.152431652
      0.118906938 0.170312777 0.240486965 0.240486965 0.214932635
      0.102100223 0.0509161316 0.0586390272 0.0891234726 0.101136781
      0.22893922 0.240486965 0.221388772 0.110170394 0.0963173583
      0.101892956 0.0967066586 0.220364839 0.112997122 0.125346392
      0.240486965 0.240486965 0.173119813 0.130189463 0.121112779
      0.105514877 0.233329445 0.152097315 0.200590074 0.240486965
      0.246413738 0.246413738 0.139227793 0.116585664 0.081338957
      0.0368076228 0.109234735 0.144054174 0.228252083 0.246413738
      0.246413738 0.211899325 0.0809882879 0.124830306 0.11093545
      0.156087279 0.146305412 0.246413738 0.155808225 0.134575531
      0.136883929 0.148105174 0.121591613 0.15346618 0.144310594
      0.175663799 0.120160155 0.145206168 0.118994921 0.15467076
      0.11347162 0.148320153 0.246413738 0.192749575 0.230392024
      0.102849029 0.191902637 0.141026095 0.0701228902 0.0482815206
      0.0564487614 0.0844895393 0.1591876 0.214365095 0.184588626
      0.213227302 0.133323535 0.117881313 0.0657557994 0.0938941389
      0.132662743 0.162134707 0.23773554 0.23773554 0.23773554
      0.118675783 0.0794341788 0.0683192089 0.0878451467 0.0955967903
      0.23773554 0.23773554 0.23773554 0.23773554 0.153494731 0.10826429
      0.123116985 0.132993221 0.0926297083 0.23773554 0.23773554
      0.23773554 0.151109755 0.21870409 0.12238808 0.0905866697
      0.0805473849 0.117529005 0.156399772 0.115089349 0.195674777
      0.15412873 0.178486466 0.12290258 0.108079351 0.122247428
      0.202475533 0.21870409 0.174666256 0.20260708 0.193375304
      0.187134251 0.127329648 0.109131113 0.12586239 0.116680861
      0.21870409 0.149934217 0.21870409 0.206997961 0.200072289
      0.1828392 0.11419455 0.124678135 0.137493208 0.21870409
      0.205776304 0.21870409 0.0763439015 0.0520310476 0.116113245
      0.0703992844 0.101399571 0.148704559 0.191056103 0.218295798
      0.188882381 0.133439198 0.0624267906 0.124019839 0.10266865
      0.102485791 0.160055161 0.195896983 0.218295798 0.218295798
      0.093411535 0.0513333865 0.146821097 0.130393058 0.166011736
      0.20761241 0.180512071 0.218295798 0.201398194 0.218295798
      0.091285944 0.218295798 0.189982325 0.210501641 0.197153464
      0.203934848 0.218295798 0.218295798 0.215284675 0.179584101
      0.104254112 0.0690619722 0.0869985074 0.10486602 0.179399714
      0.221101359 0.219640687 0.157068506 0.114460051 0.0855099112
      0.100929111 0.0728703961 0.120098181 0.228417799 0.228417799
      0.228417799 0.16422233 0.116826087 0.0940593705 0.0676180646
      0.145034313 0.215468079 0.228417799 0.228417799 0.205099717
      0.09089268 0.124929547 0.109215416 0.110653125 0.138404518
      0.222804666 0.228417799 0.228417799 0.1870116 0.183561385
      0.163275748 0.150158256 0.0939085856 0.0775767416 0.101639651
      0.110103369 0.16150333 0.220695376 0.220695376 0.220695376
      0.132229656 0.0767223313 0.0563955344 0.114190698 0.185198367
      0.220695376 0.220695376 0.220695376 0.126593783 0.131862804
      0.120134383 0.169423401 0.186988696 0.096244365 0.172800526
      0.220695376 0.220186234 0.139460534 0.132040575 0.116239719
      0.136488557 0.149735406 0.220695376 0.220695376 0.220695376
      0.155547097 0.183705866 0.196977258 0.137422085 0.102711335
      0.129952118 0.104017034 0.172401905 0.164337292 0.215947315
      0.205459222 0.13667798 0.0931003243 0.108766586 0.150268897
      0.160805508 0.215947315 0.215947315 0.158980668 0.215947315
      0.21537593 0.161518544 0.166184619 0.135621965 0.0682861805
      0.215947315 0.140047431 0.21213977 0.153811738 0.0874347165
      0.0760250241 0.12355601 0.174922124 0.187022805 0.215947315
      0.215947315</_>
    <_>
      0.173028409 0.163520589 0.153665602 0.114211723 0.154663265
      0.119640708 0.108495414 0.107398115 0.146165609 0.212615117
      0.212615117 0.116206668 0.0821316615 0.17530413 0.150042772
      0.125697196 0.116873294 0.212615117 0.212615117 0.182657614
      0.188050941 0.166606188 0.19247289 0.165928483 0.131128296
      0.160521433 0.156599358 0.212615117 0.157596782 0.183726817
      0.142712742 0.198148951 0.212615117 0.153225526 0.186212927
      0.206222147 0.161901265 0.133931205 0.134677917 0.0649020448
      0.104881272 0.125012934 0.106744125 0.0590903722 0.140427887
      0.306322724 0.113803826 0.093931295 0.051207386 0.101260543
      0.108875789 0.127074957 0.1556499 0.306322724 0.156281844
      0.136619121 0.0845386162 0.0539971851 0.0716243833 0.202073991
      0.203005314 0.147199869 0.169460222 0.306322724 0.167523712
      0.0873589516 0.0428438522 0.10212484 0.191345111 0.226625517
      0.283456057 0.306322724 0.311113209 0.0158502795 0.0138183907
      0.0188772213 0.0277640056 0.0285921525 0.0312083159 0.0772110447
      0.35598284 0.284487635 0.0500796065 0.0379753411 0.024332989
      0.0539380386 0.0447016731 0.0527906939 0.0834098086 0.35598284
      0.35598284 0.03300808 0.0129133947 0.00476114079 0.0197460074
      0.0164779946 0.0132108927 0.0784349963 0.35598284 0.35598284
      0.0936794654 0.0357468762 0.032199651 0.0819196254 0.0222840142
      0.0222883318 0.0528990924 0.35598284 0.219468221 0.128192186
      0.116099462 0.151634037 0.159491152 0.145231649 0.0417646691
      0.159601629 0.234158218 0.158048972 0.0955839604 0.113306679
      0.0964839682 0.150404841 0.172685564 0.0928937495 0.100686796
      0.200453326 0.23679094 0.13263689 0.228897855 0.153367355
      0.23679094 0.219861314 0.0751805156 0.23679094 0.23679094
      0.23679094 0.101390712 0.132192105 0.0870974436 0.161159277
      0.121340647 0.100932367 0.173747659 0.23679094 0.187196329
      0.239447504 0.157724231 0.0947491601 0.102681339 0.134337977
      0.0744426847 0.126157477 0.137744874 0.204819098 0.24155803
      0.148044661 0.0668707639 0.150799662 0.215741366 0.167678192
      0.19267194 0.133157268 0.24155803 0.24155803 0.130098358
      0.0868965983 0.0588960536 0.0726127699 0.078086555 0.166593239
      0.238764673 0.24155803 0.24155803 0.150748849 0.0570582934
      0.0587917678 0.0880899429 0.109600343 0.24155803 0.24155803
      0.14192602 0.13671647 0.173663333 0.117870957 0.137319997
      0.13896881 0.156584069 0.22315605 0.12838383 0.22315605
      0.190367267 0.149886817 0.145524725 0.15271312 0.137134179
      0.0959462374 0.162045345 0.162349939 0.17866163 0.22315605
      0.22315605 0.177693516 0.135558322 0.0846119002 0.175166577
      0.196534574 0.138668299 0.22315605 0.175812259 0.126227885
      0.144589543 0.153182238 0.11357072 0.147001162 0.22315605
      0.22315605 0.208716914 0.146012127 0.17272006 0.112664238
      0.0670836642 0.116056703 0.139749601 0.193165049 0.177690461
      0.208716914 0.176378861 0.208716914 0.16696012 0.0872376189
      0.0959807038 0.153872713 0.199156061 0.192014843 0.208716914
      0.172178864 0.137582153 0.161052346 0.148097366 0.144882023
      0.1296615 0.145031244 0.184734255 0.208716914 0.177443951
      0.208716914 0.169139743 0.164478838 0.162864834 0.205605149
      0.136087313 0.162523955 0.130567282 0.179445833 0.122720122
      0.117799439 0.207155973 0.156108096 0.140906185 0.0908944681
      0.193669736 0.187524617 0.112927958 0.141142622 0.127397031
      0.178609699 0.147930667 0.193783104 0.170404091 0.207155973
      0.127801672 0.207155973 0.14922139 0.181915149 0.188003227
      0.207155973 0.120007038 0.138936386 0.196445599 0.173193738
      0.207155973 0.207155973 0.207155973 0.160954848 0.157850251
      0.0916377753 0.145331651 0.187718898 0.136113822 0.201053858
      0.112131596 0.149024218 0.155798554 0.0990226716 0.104138292
      0.212692663 0.109018259 0.212692663 0.185893655 0.161153525
      0.13582474 0.15519692 0.195196047 0.0991114229 0.212692663
      0.212692663 0.138827249 0.212692663 0.153260827 0.112804405
      0.173247203 0.106609866 0.162098899 0.122090325 0.138649151
      0.200005561 0.212692663 0.207830817 0.18114154 0.207610413
      0.118723914 0.172117248 0.159765899 0.198221564 0.203377768
      0.158369124 0.167380542 0.111132406 0.145904779 0.156658307
      0.132080421 0.0986759737 0.167426124 0.175573632 0.208448485
      0.13566646 0.114659972 0.131759033 0.197637632 0.174244344
      0.161224157 0.182868302 0.181119904 0.123421177 0.151934788
      0.160339147 0.157634929 0.16079013 0.208448485 0.141018808
      0.105754487 0.20681791 0.186711714 0.138108432 0.208448485
      0.181897104 0.183399022 0.208448485 0.179391235 0.182895795
      0.198165134 0.21401988 0.135495886 0.10166467 0.132342577
      0.0886469632 0.117384262 0.184252277 0.111807734 0.21401988
      0.162661895 0.169261634 0.21401988 0.14492017 0.110163257
      0.135408998 0.213649601 0.191161439 0.18086642 0.21401988
      0.206208587 0.100093052 0.175694555 0.160267428 0.091586858
      0.0870706588 0.164132595 0.180227458 0.21401988 0.21401988
      0.213548347 0.15928182 0.203538164 0.119889595 0.134637877
      0.13636972 0.178172991 0.212097391 0.204642892 0.149532571
      0.0746715888 0.143339515 0.0711025223 0.0689570978 0.163850322
      0.212097391 0.186153308 0.212097391 0.212097391 0.111116074
      0.172699362 0.0533320494 0.0975111127 0.168568254 0.170779496
      0.212097391 0.212097391 0.138239816 0.112317309 0.160083666
      0.136818439 0.101144247 0.197414339 0.212097391 0.212097391
      0.207403928 0.175547674 0.115771003 0.191718772 0.133114323
      0.143192768 0.212097391</_>
    <_>
      0.217777178 0.217777178 0.15185684 0.13894023 0.165328249
      0.0976676419 0.0498650819 0.0818557218 0.157242283 0.217777178
      0.217777178 0.134213015 0.116224445 0.163319543 0.14778477
      0.150558427 0.158506021 0.217777178 0.197600126 0.19195734
      0.13458626 0.201016441 0.14361833 0.0757777244 0.0814663395
      0.122972898 0.145417988 0.208196968 0.187641487 0.165285975
      0.16358231 0.162677512 0.182309166 0.169811293 0.217777178
      0.217777178 0.162388444 0.162638992 0.142026246 0.20967114
      0.178765759 0.0940190554 0.115933873 0.179004282 0.209440112
      0.15383558 0.199739665 0.132813334 0.171476036 0.185932547
      0.0979722813 0.161210269 0.142808303 0.135575905 0.181169286
      0.210300311 0.13603723 0.210300311 0.182120547 0.136695772
      0.10162624 0.181146011 0.184952378 0.172118291 0.210300311
      0.112128966 0.200366914 0.194489896 0.1573897 0.181289002
      0.172237247 0.102842167 0.171679214 0.166823179 0.213219032
      0.187195867 0.100919619 0.143763289 0.167860299 0.112815596
      0.105536476 0.161661342 0.213219032 0.213219032 0.199967787
      0.116076007 0.130470306 0.133126199 0.112576053 0.129784122
      0.156425774 0.14787674 0.129770145 0.167044088 0.0987023637
      0.210650325 0.175852895 0.0986754447 0.147159949 0.213219032
      0.194073856 0.212507293 0.162333757 0.190036014 0.213219032
      0.213219032 0.134370163 0.187449977 0.210725233 0.210725233
      0.151029482 0.195152521 0.19207637 0.156636506 0.104376763
      0.0660923421 0.144125506 0.186276987 0.179163232 0.148850456
      0.210725233 0.210725233 0.105705984 0.0754677728 0.0993534178
      0.1303332 0.157832667 0.159456149 0.200520754 0.149117827
      0.168087363 0.210725233 0.184042856 0.0692418888 0.134186789
      0.149257287 0.199637949 0.210702702 0.184908539 0.161380947
      0.210725233 0.210725233 0.133575007 0.117066622 0.110261485
      0.125439227 0.207999945 0.203691244 0.119173966 0.163450539
      0.154078797 0.0802742466 0.129232466 0.132561356 0.212054849
      0.193865061 0.125774801 0.0952402353 0.1464995 0.18222633
      0.15602316 0.130620316 0.159437791 0.132664278 0.212054849
      0.212054849 0.122237124 0.142320037 0.194450364 0.127644643
      0.173030555 0.203936666 0.186105907 0.212054849 0.138769612
      0.0959592387 0.212054849 0.198967487 0.212054849 0.212054849
      0.0877007693 0.0972445086 0.0672204942 0.0616868809 0.0766109899
      0.128841519 0.217756435 0.217756435 0.186227813 0.164246902
      0.217756435 0.129562393 0.141731963 0.141081333 0.217756435
      0.217756435 0.217756435 0.208492801 0.147052765 0.196729496
      0.217756435 0.198655978 0.140212908 0.1284841 0.196810976
      0.135596424 0.132245645 0.125468254 0.217756435 0.217756435
      0.188055933 0.168954015 0.142923608 0.141473517 0.101838537
      0.142062038 0.193233967 0.147978559 0.11959596 0.143305823
      0.0895027146 0.135687873 0.0998271331 0.213827997 0.213827997
      0.159497872 0.180080146 0.13564761 0.185465708 0.0914937258
      0.201622739 0.202167109 0.213827997 0.148599386 0.213827997
      0.18791762 0.136199668 0.177835166 0.062163692 0.187854171
      0.106667042 0.131748706 0.213827997 0.213827997 0.128529459
      0.125750795 0.187318087 0.0737777278 0.148097411 0.175504833
      0.213827997 0.213827997 0.170128793 0.111393206 0.219714791
      0.14656496 0.127484962 0.153541341 0.115529887 0.151292115
      0.175325766 0.219714791 0.149059191 0.189820752 0.153934032
      0.0966860354 0.13355729 0.137248516 0.188590184 0.219714791
      0.212637499 0.175988108 0.181016684 0.130833581 0.119582087
      0.107277028 0.092398122 0.219714791 0.189126581 0.219714791
      0.219714791 0.168326467 0.154729828 0.0872775391 0.0976373181
      0.136104554 0.206336096 0.219714791 0.0579883717 0.0861382633
      0.102480501 0.136122227 0.0719098374 0.208565727 0.165204659
      0.160622165 0.178697497 0.264223218 0.203147978 0.179782584
      0.166531742 0.0406776331 0.18461661 0.264223218 0.264223218
      0.264223218 0.0586012155 0.0849307403 0.0742364004 0.0802801251
      0.0656483918 0.130752474 0.184263557 0.20387359 0.14801158
      0.225560501 0.128648147 0.0528674796 0.08240325 0.0685377121
      0.141070738 0.157668397 0.264223218 0.264223218 0.060429804
      0.0164048839 0.0141026881 0.0111131612 0.00720475521 0.0132775325
      0.188162863 0.337176651 0.337176651 0.0818732828 0.0453510173
      0.0481552593 0.0377784632 0.0148510104 0.0169879459 0.105898805
      0.337176651 0.337176651 0.0827845186 0.0428803302 0.0255961958
      0.025740793 0.0207206588 0.0158541538 0.047971081 0.337176651
      0.337176651 0.0797975212 0.0193492658 0.0235347897 0.0160183236
      0.0127676111 0.00937326439 0.0471680574 0.337176651 0.337176651
      0.132959917 0.0628501549 0.0787892267 0.0468000211 0.0423216969
      0.0523670726 0.0811356083 0.234859705 0.229595795 0.140048325
      0.133614942 0.0992821679 0.0512894243 0.0435183011 0.0490069054
      0.0340993553 0.122211598 0.150695294 0.129757717 0.0515576191
      0.0347765833 0.0210196041 0.077257596 0.0191885736 0.0912621245
      0.40578723 0.40578723 0.204995021 0.0994192213 0.0514498241
      0.0191630069 0.0338918269 0.0238010455 0.0526416078 0.40578723
      0.40578723 0.203233659 0.178045005 0.0924293026 0.129174635
      0.109983139 0.0587623343 0.18031767 0.16086401 0.123645552
      0.175186858 0.201737732 0.135270894 0.110242441 0.150301307
      0.117707781 0.0973092467 0.113697849 0.210114077 0.2315218
      0.211606115 0.109930903 0.108499311 0.217433557 0.0640102997
      0.161412224 0.2315218 0.2315218 0.2315218 0.164320946 0.183065921
      0.111765251 0.203569725 0.114914089 0.120524421 0.221678376
      0.2315218</_>
    <_>
      0.174074128 0.144884124 0.160018742 0.112130865 0.160671011
      0.144885674 0.172878742 0.137784585 0.127493918 0.186971992
      0.159218267 0.208469287 0.167531207 0.170521677 0.212154433
      0.111901172 0.191271931 0.109509304 0.185810283 0.212154433
      0.212154433 0.201716647 0.144581318 0.173340037 0.0969776809
      0.110483594 0.108700313 0.0996728018 0.160572186 0.212154433
      0.1813052 0.121820621 0.212154433 0.171241343 0.212154433
      0.179049253 0.143980086 0.158963665 0.190663025 0.161466867
      0.0992325023 0.202851295 0.153893247 0.0826704651 0.146938592
      0.202078402 0.210738301 0.201740369 0.139700457 0.132549018
      0.119552448 0.164788648 0.141236588 0.0813253596 0.156947121
      0.160381585 0.174026027 0.181533426 0.118203744 0.210738301
      0.197155371 0.116647385 0.162228048 0.210738301 0.210738301
      0.194923446 0.189750195 0.195682406 0.176404744 0.161759734
      0.184220225 0.110536538 0.101685792 0.0646189749 0.0675644949
      0.135702714 0.134412795 0.165933311 0.173555389 0.110259064
      0.155641705 0.103539564 0.0930346623 0.125767007 0.166062281
      0.184603363 0.181554615 0.11515481 0.186632052 0.204015583
      0.175798014 0.229553208 0.229553208 0.169952393 0.107382923
      0.150477186 0.125115439 0.155012503 0.115603566 0.229553208
      0.229553208 0.229553208 0.225485578 0.184610918 0.195927888
      0.163349435 0.200363353 0.167202801 0.125239119 0.253048033
      0.253048033 0.162849724 0.134342968 0.0410184823 0.0535755865
      0.0942105129 0.078753829 0.171774581 0.146200553 0.192505911
      0.0797834396 0.185940325 0.110572278 0.089391686 0.17728202
      0.120978139 0.253048033 0.131147534 0.168365031 0.16660291
      0.178744063 0.13221927 0.253048033 0.222585142 0.217666566
      0.243729204 0.134447917 0.12636666 0.0906702578 0.136980504
      0.157131881 0.253048033 0.170829058 0.0910872519 0.165296674
      0.160334021 0.131775469 0.150591239 0.111719333 0.151429683
      0.117062308 0.143405288 0.139568642 0.147296906 0.128770545
      0.195940286 0.119064167 0.123736471 0.178281516 0.14651981
      0.211704254 0.149999976 0.185271889 0.211704254 0.189328477
      0.202477962 0.157574132 0.211704254 0.102552816 0.0938242003
      0.14234373 0.20471631 0.211704254 0.211704254 0.211704254
      0.206122577 0.199752837 0.0968184248 0.103732035 0.211704254
      0.114465468 0.102659412 0.129824564 0.126599804 0.204639614
      0.182479307 0.146318913 0.133554429 0.168180883 0.188271731
      0.14351429 0.135240778 0.186087534 0.211709768 0.101986006
      0.119224392 0.211709768 0.16733022 0.0993453264 0.108979978
      0.167170107 0.196736246 0.151650339 0.172182798 0.16064705
      0.211709768 0.201264694 0.211709768 0.112582237 0.178214431
      0.206208482 0.211709768 0.119848266 0.121049888 0.211709768
      0.211709768 0.165808588 0.167750463 0.130932823 0.142900959
      0.155275851 0.101026192 0.113273062 0.112041295 0.162589893
      0.209963322 0.212052852 0.212052852 0.199007303 0.137331113
      0.126931265 0.0548730269 0.155219212 0.188283876 0.149839938
      0.212052852 0.212052852 0.076019831 0.102450438 0.162848264
      0.195086747 0.205760509 0.142396644 0.212052852 0.212052852
      0.212052852 0.081460014 0.121726014 0.168371916 0.130050227
      0.212052852 0.212052852 0.147299424 0.0992891937 0.0776851475
      0.0843408182 0.199226379 0.154340729 0.20230253 0.138208345
      0.187051997 0.162012979 0.0720536336 0.155001014 0.13352865
      0.213693142 0.213693142 0.193035126 0.171106115 0.213693142
      0.213693142 0.11904908 0.105029859 0.132541373 0.213693142
      0.206743792 0.202905655 0.0968603492 0.177095726 0.163482934
      0.0879798159 0.185667828 0.137409493 0.213693142 0.213693142
      0.136118546 0.125298664 0.213693142 0.17392084 0.109395012
      0.055266045 0.150277972 0.0874463767 0.15450865 0.254012197
      0.254012197 0.247406259 0.254012197 0.254012197 0.0875657648
      0.13337703 0.0346065089 0.0579862036 0.171106189 0.254012197
      0.254012197 0.141475856 0.0760180131 0.0520404242 0.0901308358
      0.0933363438 0.0672740638 0.147466511 0.254012197 0.141281173
      0.243505672 0.185933173 0.0644839853 0.0487786978 0.0619534142
      0.0904852524 0.0960966572 0.254012197 0.219481349 0.232655868
      0.254443735 0.254443735 0.167605624 0.0923313275 0.0760256201
      0.138803855 0.194297791 0.254443735 0.202045172 0.132476032
      0.128918603 0.0981240943 0.074596107 0.114805378 0.254443735
      0.254443735 0.254443735 0.209074721 0.175737619 0.109219521
      0.0905429646 0.0961328223 0.0821997151 0.0859427676 0.121460058
      0.15545845 0.2041419 0.123238027 0.0665745214 0.0398968942
      0.0767270401 0.120734297 0.143323362 0.168358505 0.250671089
      0.083801806 0.0954482257 0.046803616 0.0329286978 0.0367909856
      0.0931338519 0.324493259 0.324493259 0.136271998 0.122988708
      0.117595337 0.0557720847 0.0330301151 0.0545020774 0.0900785923
      0.22553955 0.201235279 0.164886579 0.0430252068 0.0477734432
      0.0178496949 0.0199963618 0.0865308344 0.194505364 0.324493259
      0.324493259 0.10655953 0.0812173188 0.0469585285 0.0398089811
      0.0329591669 0.132354662 0.207339674 0.324493259 0.324493259
      0.143798277 0.106648095 0.14531669 0.145643383 0.201444522
      0.187737674 0.103632748 0.071839489 0.111713707 0.142656252
      0.165832773 0.131416723 0.215417951 0.219533965 0.20452176
      0.0978546813 0.0906824693 0.130712137 0.219533965 0.1201602
      0.158807769 0.154192016 0.219533965 0.219430476 0.136566594
      0.129408523 0.184868738 0.17727457 0.219533965 0.115687691
      0.169189215 0.219533965 0.219533965 0.176781386 0.112027079
      0.126084521 0.219533965</_>
    <_>
      0.233750269 0.101453446 0.14045991 0.101601742 0.042939838
      0.0979313627 0.17582038 0.189870641 0.233750269 0.233750269
      0.172149807 0.0487640761 0.0938111991 0.0335146114 0.0906489715
      0.214139894 0.233750269 0.233750269 0.15262644 0.110370055
      0.142309397 0.145806447 0.081489116 0.180458128 0.123810142
      0.183665007 0.233750269 0.233750269 0.194829121 0.0852601677
      0.177847475 0.0930562913 0.169530839 0.163015082 0.233750269
      0.199275166 0.250464499 0.082461372 0.0218873713 0.00851721689
      0.0232451409 0.0441818051 0.0767295733 0.250464499 0.250464499
      0.250464499 0.0784954727 0.0387170203 0.0174379367 0.047972668
      0.059974499 0.0655270144 0.250464499 0.250464499 0.250464499
      0.127175495 0.0441468991 0.0700326636 0.0776106417 0.136213332
      0.136349335 0.22338073 0.240305781 0.1732786 0.250464499
      0.223341167 0.152389973 0.184829235 0.180437341 0.0631778985
      0.250464499 0.226572141 0.313792676 0.313792676 0.313792676
      0.0774009079 0.0279474035 0.00352780777 0.0159925111 0.0853985474
      0.173184529 0.249312252 0.313792676 0.313792676 0.10019397
      0.0338457413 0.00694988994 0.018380722 0.0675645918 0.195768327
      0.187615573 0.313792676 0.296267122 0.0520363078 0.0242438242
      0.0305043589 0.0565620959 0.0606929101 0.0697211251 0.145442665
      0.20767194 0.132211715 0.0776934773 0.0217148978 0.0290214214
      0.0693136379 0.0759880543 0.0805764869 0.23634024 0.0687892735
      0.0401806608 0.0246718209 0.0411452428 0.0508252755 0.13319248
      0.298724383 0.298724383 0.298724383 0.104940251 0.0746918991
      0.0232273955 0.0569417812 0.0661421493 0.162438929 0.298724383
      0.298724383 0.117583871 0.132889524 0.104649052 0.0548430234
      0.0420071594 0.0625974014 0.114367872 0.150557742 0.108291388
      0.175795093 0.193100065 0.183872074 0.106684037 0.118910335
      0.072076574 0.135669768 0.298724383 0.275516778 0.0924611241
      0.122214243 0.101627909 0.0513079204 0.121344455 0.164747298
      0.177638188 0.230985433 0.217818305 0.170689106 0.121599711
      0.125991896 0.112756476 0.112705201 0.0943861529 0.119790576
      0.12191689 0.117315851 0.103374742 0.230985433 0.230985433
      0.230985433 0.230985433 0.230985433 0.15619345 0.198184118
      0.131776467 0.170109436 0.166704327 0.151441425 0.213991642
      0.230985433 0.230985433 0.154148385 0.0970206708 0.161536008
      0.209519103 0.128973052 0.0933855027 0.157733187 0.122531623
      0.107484497 0.126219228 0.178115845 0.160496131 0.179089621
      0.176568046 0.179961786 0.0960018337 0.108624898 0.104300879
      0.170769885 0.207313791 0.158415392 0.209519103 0.176979274
      0.209519103 0.182639331 0.115301102 0.135127604 0.209519103
      0.145744324 0.160389185 0.209519103 0.173428103 0.209519103
      0.14837575 0.124629706 0.130582228 0.209428594 0.209519103
      0.209519103 0.182642207 0.104681954 0.140525416 0.109384626
      0.108647205 0.215013936 0.157070056 0.184787273 0.181888953
      0.215013936 0.0739438087 0.102716818 0.140705377 0.117839769
      0.215013936 0.215013936 0.215013936 0.161994055 0.158140153
      0.0535769612 0.0977086723 0.0848900676 0.139718443 0.204017028
      0.215013936 0.215013936 0.215013936 0.198141679 0.089934662
      0.133684322 0.123710968 0.159517676 0.215013936 0.170872316
      0.207598478 0.205066964 0.222923592 0.0782055557 0.141169637
      0.115977533 0.123461224 0.122807421 0.15518482 0.104688108
      0.168117762 0.222923592 0.143810615 0.111354537 0.114214532
      0.144442812 0.150570169 0.211167455 0.222923592 0.222923592
      0.222923592 0.112018622 0.184884146 0.110374711 0.174975574
      0.172054037 0.127553865 0.126813844 0.150445163 0.222923592
      0.131922811 0.222923592 0.122350439 0.222923592 0.222923592
      0.165620863 0.0896046162 0.202950567 0.126602709 0.0802140608
      0.00672663469 0.0171192847 0.0528026074 0.0844721124 0.115198284
      0.274239898 0.274239898 0.179820314 0.0910732076 0.0154031841
      0.0261148196 0.0179149937 0.0488859639 0.118712917 0.274239898
      0.274239898 0.208840609 0.138257369 0.0330119729 0.0721993372
      0.183966205 0.154845923 0.156903118 0.274239898 0.274239898
      0.212780893 0.186717823 0.0919789597 0.0946096554 0.108378403
      0.104856588 0.139602721 0.274239898 0.274239898 0.280709445
      0.280709445 0.271416605 0.0591286831 0.0279022101 0.0434735939
      0.0221556034 0.121163882 0.280709445 0.280709445 0.280709445
      0.280709445 0.0771728382 0.043645978 0.0658660904 0.0667093024
      0.0593475625 0.104383208 0.237312093 0.219685808 0.0782975033
      0.114379697 0.0703982562 0.125182554 0.0462430082 0.0959192514
      0.211460188 0.182323739 0.24254477 0.132616311 0.102728762
      0.112175591 0.116256341 0.116204746 0.120723233 0.153225332
      0.112724476 0.146274433 0.215010628 0.196870491 0.143190444
      0.142183796 0.108606398 0.137029782 0.135244802 0.135629296
      0.211607903 0.215010628 0.141333804 0.17441082 0.121142708
      0.0652510673 0.215010628 0.197518051 0.0983944461 0.215010628
      0.215010628 0.166858301 0.191926301 0.0967949331 0.122342706
      0.147655457 0.202438369 0.136145905 0.215010628 0.187637344
      0.165352091 0.215010628 0.134714827 0.0627500787 0.171481863
      0.215010628 0.137615263 0.17455478 0.193366438 0.129334986
      0.1220759 0.117379032 0.149206504 0.174575344 0.121416442
      0.206973433 0.211249724 0.211773187 0.196779907 0.143960595
      0.065711081 0.0899626166 0.143926263 0.1801451 0.175135404
      0.172481447 0.103242144 0.122256033 0.177021414 0.131008506
      0.149312213 0.188399568 0.211773187 0.211773187 0.193886101
      0.159278005 0.185206264 0.181499928 0.0791194364 0.180794209
      0.211773187 0.211773187</_>
    <_>
      0.0614200607 0.286785662 0.251950592 0.0640151054 0.0379938297
      0.0433543101 0.0466814674 0.0458389856 0.0495801419 0.119203784
      0.328994393 0.328994393 0.144976109 0.0980872288 0.0555144921
      0.0385693684 0.0417837687 0.0462171026 0.149472684 0.328994393
      0.328994393 0.147386327 0.0522892028 0.019943824 0.020136755
      0.0283071529 0.0829563364 0.131036296 0.328994393 0.328994393
      0.213774651 0.0942097381 0.0305210147 0.0100437319 0.0207844265
      0.0428525805 0.323168695 0.152975425 0.0587358326 0.0118218642
      0.0365177393 0.0136426892 0.0220233221 0.163868919 0.323168695
      0.323168695 0.0869818926 0.0302822478 0.0159151722 0.0188216716
      0.0178224053 0.0483908355 0.235253304 0.323168695 0.323168695
      0.112055026 0.021379523 0.00559965661 0.0188392755 0.0101256836
      0.00947950687 0.0691161528 0.323168695 0.323168695 0.0707330182
      0.00725747272 0.00872885901 0.00872454233 0.00832211785
      0.0198596139 0.119512722 0.323168695 0.142021015 0.166649818
      0.0797977746 0.0461565107 0.0407673568 0.101343475 0.150243774
      0.264354825 0.264354825 0.181563288 0.108037017 0.0819153711
      0.0547294505 0.0756592676 0.120626859 0.169680342 0.264354825
      0.264354825 0.171702549 0.200055405 0.070275411 0.0465172641
      0.0371859781 0.0506582111 0.0956422985 0.242250115 0.264354825
      0.233671755 0.156718165 0.0896213576 0.190744564 0.134577066
      0.111173213 0.106684633 0.264354825 0.264354825 0.263320744
      0.254245251 0.10868299 0.0313204452 0.0696969181 0.0559753962
      0.0532566644 0.0683305189 0.171762198 0.26145032 0.263320744
      0.239404038 0.0631389096 0.06396088 0.0800202191 0.055287838
      0.0999553949 0.221244946 0.263320744 0.263320744 0.090050526
      0.0193727128 0.0258456133 0.0375943407 0.0427921675 0.219061911
      0.263320744 0.263320744 0.254223853 0.135048866 0.0471774451
      0.0306020677 0.0516763218 0.0482327119 0.189766571 0.263320744
      0.326843947 0.120189883 0.0222632661 0.0217881445 0.0141415931
      0.0377123766 0.0333773196 0.102761984 0.326843947 0.326843947
      0.125232562 0.052993685 0.0197123829 0.0243851375 0.0501396842
      0.0636149794 0.122822307 0.326843947 0.326843947 0.10372711
      0.0127895698 0.0117400689 0.0052973046 0.0075680865 0.0712791905
      0.151128724 0.326843947 0.326843947 0.128346086 0.0417307205
      0.0126885474 0.00526036974 0.015448696 0.029126754 0.117170349
      0.326843947 0.122627206 0.0644444376 0.0300004669 0.0451888107
      0.0623905621 0.0518866293 0.157830119 0.234861448 0.263217092
      0.138721511 0.0727436841 0.0393292643 0.0823938474 0.0644635931
      0.097257711 0.180120692 0.223749846 0.263217092 0.247043699
      0.0975849852 0.030982621 0.0403253846 0.0696716979 0.10440471
      0.263217092 0.263217092 0.263217092 0.263217092 0.0538950376
      0.0385755338 0.0333287753 0.0863162652 0.184910432 0.263217092
      0.263217092 0.263217092 0.136306673 0.0322218724 0.0501896702
      0.113664471 0.206490085 0.157194093 0.255970567 0.255970567
      0.0994760767 0.120050237 0.0382166021 0.0432644524 0.0797228366
      0.203135625 0.117340937 0.196734637 0.184533 0.122357503
      0.218956575 0.0393436253 0.0544591658 0.131617531 0.102351628
      0.136166066 0.255970567 0.255970567 0.235474959 0.255970567
      0.142270684 0.0656808168 0.0587693565 0.0838185698 0.0817568526
      0.255970567 0.252331316 0.255970567 0.24342528 0.091780588
      0.0655910522 0.0152999656 0.0115588848 0.0144491596 0.0290994104
      0.0900066495 0.247020304 0.276370496 0.105708867 0.0255822651
      0.0066134017 0.00797227584 0.0167055652 0.0163792465 0.142043859
      0.307969749 0.307969749 0.217913806 0.252151459 0.0834078193
      0.122894682 0.0450663455 0.0471053384 0.172271296 0.307969749
      0.307969749 0.0842137039 0.0336186551 0.00569592882 0.0262983013
      0.00467393408 0.0162129849 0.307969749 0.307969749 0.196102858
      0.166414991 0.0703234449 0.06531661 0.0432689376 0.0368644036
      0.0429781228 0.0416590832 0.164585859 0.101901762 0.184056893
      0.113596395 0.252406001 0.226770267 0.18660745 0.0702171922
      0.0372494832 0.102510139 0.257305473 0.216982514 0.0559719875
      0.0840351656 0.123836629 0.0933763534 0.0482297651 0.21085161
      0.257305473 0.257305473 0.257305473 0.200033724 0.257305473
      0.171192914 0.103405468 0.112540334 0.214910939 0.257305473
      0.296820104 0.115500085 0.0347659886 0.100602232 0.0593290702
      0.0303878281 0.0515956543 0.0788680688 0.238848969 0.296820104
      0.144362941 0.0609266795 0.0638334304 0.0287323836 0.016554378
      0.0656602457 0.153064534 0.296820104 0.296820104 0.206812993
      0.0556992367 0.0433466099 0.0538825393 0.0297540855 0.0684389174
      0.163140908 0.296820104 0.296820104 0.211024374 0.0527986065
      0.0271702688 0.0376081057 0.0291442946 0.0808946267 0.296820104
      0.296820104 0.226488441 0.108136296 0.0372592919 0.0585671887
      0.0632546917 0.094464235 0.11247465 0.184036806 0.277884215
      0.299734712 0.0567231923 0.0200147256 0.0847067684 0.105694652
      0.047987245 0.154350743 0.118768819 0.299734712 0.299734712
      0.151865497 0.0552617759 0.0385064147 0.0676087439 0.0354688577
      0.0447051823 0.254804701 0.299734712 0.299734712 0.0874563456
      0.0515603796 0.105187692 0.113941863 0.085859701 0.116443425
      0.188813806 0.299734712 0.117592826 0.0991771072 0.199843228
      0.103707261 0.0800361037 0.0715688765 0.0389987156 0.0803894624
      0.174232319 0.258042663 0.258042663 0.258042663 0.110623091
      0.0655519813 0.111714475 0.0869896859 0.101529062 0.220923156
      0.258042663 0.144563481 0.197989419 0.103086978 0.0932876542
      0.0378630869 0.0789357573 0.258042663 0.258042663 0.167681634
      0.101659641 0.153075919 0.0913316831 0.0882613063 0.114531189
      0.258042663 0.258042663 0.258042663</_>
    <_>
      0.162355572 0.208080009 0.166114807 0.163447425 0.164727524
      0.0793476999 0.0843935311 0.16026713 0.143212557 0.16414839
      0.208080009 0.141449749 0.178042307 0.156949431 0.16543211
      0.16879791 0.208080009 0.156327456 0.17083697 0.208080009
      0.122048378 0.149304926 0.183591634 0.157936186 0.115684815
      0.164040327 0.153492182 0.139992729 0.200095907 0.119519763
      0.208080009 0.208080009 0.180972472 0.139804393 0.208080009
      0.169545889 0.22037971 0.144755065 0.109695688 0.119282238
      0.106770694 0.0985292569 0.112032294 0.151018649 0.200719774
      0.22037971 0.22037971 0.155995578 0.139718235 0.154946327
      0.125823095 0.0904635638 0.148663774 0.215294346 0.22037971
      0.177353039 0.13059406 0.118221052 0.094607383 0.158174783
      0.161334977 0.202518091 0.22037971 0.22037971 0.22037971
      0.155819416 0.181626961 0.123180248 0.142664537 0.144776702
      0.166450694 0.22037971 0.144228369 0.0901707187 0.112605698
      0.104585066 0.158938527 0.204294324 0.145727202 0.160576388
      0.145134568 0.167124331 0.131607488 0.1353385 0.172318712
      0.167831004 0.185524777 0.141029179 0.105744697 0.168718189
      0.16256775 0.170871049 0.171019882 0.136833355 0.208208188
      0.208208188 0.208208188 0.177284405 0.177927107 0.208208188
      0.208208188 0.132914811 0.208208188 0.198886529 0.204166546
      0.169188663 0.156351119 0.127027005 0.156161964 0.163324878
      0.13488768 0.183310211 0.205371633 0.0824849457 0.0994136781
      0.115553357 0.126069307 0.18337068 0.144347027 0.132839218
      0.181157783 0.100124262 0.142358899 0.129220575 0.147751614
      0.237399057 0.237399057 0.215915933 0.186837301 0.137938395
      0.0955478773 0.0905954391 0.153924048 0.159871474 0.222082913
      0.237399057 0.237399057 0.160235077 0.127227977 0.0540264472
      0.0881111026 0.160482422 0.237399057 0.237399057 0.0665726885
      0.113531284 0.100679569 0.084019959 0.118523277 0.166698158
      0.118539557 0.159019098 0.119484998 0.100392975 0.073605448
      0.121695042 0.168837577 0.12245243 0.248548374 0.133886024
      0.139438257 0.134913266 0.270583242 0.198172405 0.12335439
      0.0337781832 0.105268188 0.155542016 0.204291791 0.25842008
      0.270583242 0.270583242 0.200282469 0.136926621 0.141923308
      0.0934758261 0.179969043 0.160583168 0.194871455 0.270583242
      0.180727527 0.103303835 0.151665762 0.145764634 0.141184434
      0.126883715 0.113609798 0.136967763 0.199675679 0.137698859
      0.0721563995 0.0944636464 0.111727647 0.115141772 0.180961952
      0.180541843 0.13935037 0.211749703 0.228275105 0.114002347
      0.147013098 0.133432642 0.146693185 0.166465253 0.228275105
      0.228275105 0.228275105 0.207931429 0.182477206 0.129452407
      0.114621505 0.157282665 0.171612486 0.228275105 0.198028356
      0.228275105 0.171478823 0.0402854271 0.168016672 0.213827893
      0.201432049 0.146519154 0.105553769 0.0977881625 0.132362604
      0.213827893 0.073396571 0.126397207 0.213827893 0.213827893
      0.213827893 0.213827893 0.194371983 0.129486561 0.143276915
      0.0855206177 0.10245461 0.138930947 0.163930506 0.17266348
      0.170868665 0.213827893 0.138588667 0.182395235 0.119787231
      0.1461972 0.213827893 0.213827893 0.213827893 0.130194515
      0.213827893 0.103977196 0.0897815973 0.164172545 0.170897231
      0.127265349 0.156110883 0.110041447 0.20465064 0.192249358
      0.127349958 0.0963869765 0.233693168 0.240524009 0.180941269
      0.148095712 0.128464058 0.135182947 0.0989992246 0.13325654
      0.147750765 0.247854352 0.247854352 0.163390309 0.10046728
      0.0500562899 0.119694434 0.0980527475 0.142553851 0.247854352
      0.247854352 0.247854352 0.213748679 0.0902654678 0.0433698632
      0.0831114724 0.125857964 0.236204967 0.146200031 0.113300644
      0.150318593 0.198714867 0.157338962 0.125544727 0.0641134307
      0.0763791278 0.13521862 0.237037346 0.184114501 0.237037346
      0.227561772 0.0686687455 0.118024461 0.144890875 0.124914341
      0.237037346 0.237037346 0.237037346 0.144217819 0.1496443
      0.0942892209 0.0771686882 0.0905675814 0.0948494747 0.204557553
      0.237037346 0.237037346 0.237037346 0.190284938 0.0722632408
      0.107391313 0.0833717436 0.149060741 0.207265928 0.263767779
      0.100947052 0.0308364518 0.0205201786 0.0397744887 0.0749177188
      0.124405228 0.223682255 0.263767779 0.263767779 0.149309114
      0.0375010185 0.0210822299 0.0497206002 0.176966742 0.239030108
      0.160595551 0.263767779 0.263767779 0.13614215 0.0952106416
      0.0598247722 0.069568567 0.0758134201 0.112812765 0.248443082
      0.263767779 0.263767779 0.170906052 0.0633694455 0.0806678832
      0.0801802278 0.0895598307 0.147503942 0.15327628 0.263767779
      0.342061609 0.128321946 0.0299200136 0.0263540149 0.0960493535
      0.032954108 0.0221265387 0.0723941028 0.29891935 0.342061609
      0.209489271 0.0196652114 0.0307263508 0.0494564325 0.0340505578
      0.0128782718 0.0748687685 0.342061609 0.342061609 0.152955517
      0.0503989384 0.0389614813 0.0371029489 0.0199191086 0.0249201376
      0.102837577 0.233150452 0.342061609 0.199436545 0.0979127958
      0.0574669875 0.0468122736 0.0300076846 0.0138496738 0.116078354
      0.263254493 0.264127135 0.264127135 0.246875048 0.0939939022
      0.126688555 0.140707821 0.0922534838 0.0625675097 0.165221527
      0.13906087 0.264127135 0.255918682 0.234229356 0.213244066
      0.220850706 0.128673434 0.10272526 0.0833960921 0.245968342
      0.264127135 0.129283741 0.0718707815 0.0886655301 0.0895355493
      0.0734348521 0.108028151 0.0938596353 0.173379064 0.181385785
      0.163977668 0.107574642 0.11182867 0.121059284 0.121046975
      0.167412698 0.0977354646</_>
    <_>
      0.172550723 0.124622829 0.0972652137 0.086062476 0.185463607
      0.118423261 0.211093113 0.173641622 0.18693386 0.170196459
      0.119363368 0.135576516 0.124242261 0.211093113 0.165023655
      0.211093113 0.205688074 0.100621961 0.173533291 0.191466957
      0.0948451906 0.117624596 0.12619248 0.126401752 0.211093113
      0.211093113 0.159198731 0.211093113 0.211093113 0.18750222
      0.0812273398 0.168358296 0.197537333 0.165229052 0.211093113
      0.16047056 0.0620951764 0.0350990966 0.0392996818 0.0357227549
      0.150002658 0.182937115 0.262455672 0.156931013 0.104713686
      0.187322259 0.0779563189 0.0659624711 0.0979664996 0.262455672
      0.262455672 0.19241266 0.10897363 0.238940209 0.182335213
      0.0651963577 0.046353817 0.0448444635 0.0535846204 0.100837864
      0.262455672 0.262455672 0.22587049 0.262455672 0.0847731158
      0.102496944 0.0550950207 0.104572728 0.262455672 0.168746486
      0.141026556 0.262455672 0.164140508 0.0998902172 0.0756249428
      0.157341763 0.227000758 0.218320832 0.114816874 0.038313739
      0.122218892 0.0825698972 0.149139941 0.190390155 0.251691461
      0.251691461 0.152589157 0.0720124245 0.0465491675 0.0670732632
      0.251691461 0.228342667 0.0859226659 0.117305271 0.159626156
      0.124082059 0.144203961 0.108633153 0.223437488 0.251691461
      0.251691461 0.236998677 0.251691461 0.0989871547 0.0789778605
      0.108127773 0.11864645 0.161611214 0.174912661 0.101595901
      0.12802127 0.182602674 0.165779039 0.117184244 0.133704931
      0.130483702 0.172639132 0.213997886 0.134759963 0.0977838784
      0.202926248 0.184155688 0.149956763 0.182575509 0.207902446
      0.162776455 0.213997886 0.150312394 0.126450643 0.165241674
      0.213997886 0.147003964 0.178046599 0.106730349 0.145117894
      0.213997886 0.156929538 0.11179217 0.213997886 0.188055396
      0.104389906 0.172611624 0.182574108 0.213997886 0.129216284
      0.131398797 0.148777291 0.0928767622 0.134431288 0.137792692
      0.213597313 0.214158282 0.162373036 0.146851093 0.214158282
      0.185230494 0.105121866 0.096629113 0.139001802 0.180213466
      0.214158282 0.177378997 0.107137434 0.180995539 0.143498391
      0.157893449 0.168169662 0.0844248906 0.196257561 0.20124276
      0.176717594 0.206013575 0.214158282 0.205395803 0.188724115
      0.148861229 0.0900915191 0.200202987 0.214158282 0.0960660353
      0.117803141 0.140914232 0.0683361515 0.0525518544 0.132032365
      0.163565621 0.233597636 0.20859015 0.133978844 0.175103948
      0.128764912 0.0776880607 0.0710848495 0.163893536 0.201044038
      0.233597636 0.233597636 0.176200464 0.182376549 0.158381507
      0.0574087128 0.0858607516 0.1472096 0.142807201 0.233597636
      0.177285761 0.176735505 0.166435748 0.170973778 0.11172466
      0.0755331293 0.109071299 0.226848558 0.233597636 0.233597636
      0.233597636 0.162657693 0.132499844 0.152057752 0.111812912
      0.131399572 0.133778274 0.150517106 0.140667841 0.150110587
      0.207685873 0.171357557 0.212739155 0.166959941 0.137219653
      0.162093371 0.212739155 0.116237603 0.123458929 0.205660403
      0.10915821 0.174969763 0.145613015 0.124681599 0.143994898
      0.212739155 0.182534605 0.13745451 0.212739155 0.153896943
      0.186980382 0.212739155 0.212739155 0.161315247 0.212739155
      0.163375512 0.145536467 0.1618727 0.14806506 0.121791855
      0.173658341 0.12871705 0.190072492 0.0955308676 0.0754516125
      0.162031934 0.206639692 0.180006877 0.198468223 0.206779793
      0.112527095 0.123372853 0.167132989 0.143849984 0.19525665
      0.143601358 0.140046984 0.102251247 0.141013756 0.154336274
      0.199360058 0.20307976 0.182132065 0.196796983 0.206779793
      0.146650329 0.187099978 0.206779793 0.125850216 0.171158314
      0.206779793 0.138579249 0.206779793 0.126521811 0.169851959
      0.0696359873 0.0589518063 0.104475237 0.141932905 0.270468563
      0.270468563 0.113268115 0.117033318 0.102944471 0.0656162202
      0.0825767741 0.116364881 0.197049558 0.270468563 0.270468563
      0.250375181 0.127584115 0.184461683 0.103655778 0.11825826
      0.146153942 0.098467648 0.151383832 0.161929369 0.0937267616
      0.157312065 0.156335041 0.111825272 0.16343154 0.196630731
      0.148573861 0.242818847 0.270468563 0.108945645 0.137353361
      0.0938642547 0.0652273148 0.0878648013 0.0763402209 0.0740868375
      0.176866412 0.273618013 0.209011838 0.130043685 0.048546765
      0.0689036399 0.0784628019 0.101500697 0.101360939 0.247419506
      0.217977092 0.167482838 0.148495287 0.102666736 0.0548247397
      0.0949206576 0.0965751931 0.088135235 0.273618013 0.273618013
      0.273618013 0.201985285 0.0513286367 0.0174457245 0.0392007381
      0.11845772 0.196787596 0.273618013 0.273618013 0.273618013
      0.149672493 0.156716228 0.145219401 0.120657198 0.0974302888
      0.111134075 0.116057694 0.169365391 0.152952477 0.210302979
      0.210302979 0.182461202 0.137105346 0.0876853392 0.19652915
      0.101955354 0.142697692 0.139024645 0.16968672 0.210221633
      0.210302979 0.152011171 0.20715113 0.210302979 0.0945587233
      0.135512561 0.205277771 0.208273917 0.210302979 0.210302979
      0.175728053 0.146864668 0.210302979 0.0419449657 0.139836505
      0.210302979 0.128696486 0.186780095 0.106286615 0.199035764
      0.138580665 0.125896111 0.148993626 0.214853436 0.150536388
      0.189388856 0.167595625 0.167192504 0.214853436 0.157846674
      0.135904849 0.136017814 0.214853436 0.214853436 0.144410938
      0.136636913 0.119557388 0.111842163 0.173977673 0.10743019
      0.151952669 0.214853436 0.176972374 0.194720373 0.11804387
      0.151926398 0.13174212 0.151013702 0.181961983 0.194374681
      0.190467641 0.214853436</_>
    <_>
      0.195981652 0.120243877 0.229145914 0.166021511 0.114386417
      0.139695033 0.0882073641 0.0471405424 0.124745883 0.183032885
      0.217206821 0.229145914 0.220774174 0.164618343 0.131777659
      0.0856215656 0.128851503 0.16559656 0.229145914 0.124539159
      0.229145914 0.167997316 0.0803401768 0.13678804 0.103141077
      0.0908035487 0.165238783 0.229145914 0.229145914 0.229145914
      0.229145914 0.0987996161 0.102008626 0.0822909549 0.138848513
      0.229145914 0.15423055 0.201953977 0.196558997 0.156671956
      0.20771122 0.089430742 0.141093954 0.0878139064 0.0955699906
      0.207195029 0.168886691 0.171714678 0.21739617 0.214880571
      0.0864028186 0.116255455 0.0682024732 0.140147731 0.21739617
      0.21739617 0.21739617 0.21739617 0.131167889 0.0903446451
      0.146932155 0.0564150512 0.128101841 0.21739617 0.21739617
      0.182001039 0.21739617 0.21739617 0.127977118 0.149732366
      0.0844553635 0.137257069 0.155650616 0.1800946 0.21345897
      0.154199407 0.0578002036 0.0750164762 0.166866705 0.145554855
      0.163421363 0.150674686 0.163842276 0.151669607 0.112941369
      0.0810107589 0.118296474 0.21345897 0.193556443 0.18045792
      0.201450333 0.144682109 0.193005681 0.210392922 0.188111544
      0.106122978 0.0963381603 0.17971687 0.21345897 0.152843848
      0.127276808 0.115993336 0.186205551 0.181424379 0.177708521
      0.21345897 0.21345897 0.21345897 0.175004512 0.119432703
      0.109269612 0.172355071 0.103168115 0.141284674 0.127464429
      0.0986705422 0.0968245864 0.238966808 0.220799446 0.145667627
      0.147052988 0.12061052 0.14142181 0.13495943 0.132777035
      0.106979072 0.239711314 0.233274758 0.152047545 0.228191093
      0.124268405 0.130898252 0.113771759 0.0785518438 0.188941225
      0.249190569 0.249190569 0.202219829 0.226894215 0.12196248
      0.121831268 0.110727422 0.13919346 0.249190569 0.157651126
      0.130375966 0.0712487623 0.0808039084 0.155383348 0.101706833
      0.192896739 0.215065598 0.141047612 0.215065598 0.119902469
      0.0577534847 0.142589658 0.186254159 0.110594369 0.202358752
      0.215065598 0.114637695 0.202182099 0.116421849 0.112875387
      0.153115675 0.153018728 0.158628151 0.215065598 0.215065598
      0.215065598 0.215065598 0.151056975 0.178866029 0.198917896
      0.191211805 0.148387566 0.16491732 0.215065598 0.15609774
      0.156319961 0.203981087 0.216548994 0.150173649 0.146022722
      0.094585076 0.0509518795 0.117965244 0.192311302 0.157906398
      0.188752368 0.0908920988 0.118591212 0.16662699 0.164314806
      0.139119163 0.210755438 0.216548994 0.200954765 0.20895195
      0.163603351 0.144670904 0.102167882 0.048746042 0.148401633
      0.216548994 0.189023972 0.216548994 0.216548994 0.118892364
      0.0925865918 0.0918668732 0.124297015 0.216548994 0.216548994
      0.216548994 0.167082146 0.140834212 0.113468863 0.188100815
      0.214920551 0.117955074 0.102879226 0.0990435705 0.112516142
      0.0812252834 0.145977631 0.103068434 0.187623203 0.211087748
      0.214920551 0.174099296 0.198963299 0.139618516 0.145119801
      0.214920551 0.137208402 0.214920551 0.214920551 0.17909734
      0.15152812 0.103895292 0.110489957 0.123228878 0.176510558
      0.138959482 0.138058007 0.214920551 0.214920551 0.209194317
      0.214920551 0.17683661 0.188810647 0.130852923 0.0849312916
      0.0946060941 0.0869016945 0.20976074 0.188002124 0.159878865
      0.171944141 0.154625282 0.162853405 0.135651574 0.1645751
      0.0537090711 0.116941474 0.177804455 0.215194851 0.164185137
      0.142370775 0.1360268 0.119653597 0.176349267 0.160854429
      0.215194851 0.189897045 0.215194851 0.14956896 0.198067442
      0.215194851 0.215194851 0.215194851 0.13915281 0.164219424
      0.104717404 0.163276613 0.215194851 0.126808241 0.132290944
      0.122854508 0.111108541 0.10617432 0.0592928678 0.108858772
      0.0842813179 0.0836113989 0.258558005 0.261280388 0.187196732
      0.183631733 0.135886356 0.051945433 0.0688141286 0.103559688
      0.13895072 0.261280388 0.261280388 0.261280388 0.260636628
      0.120932646 0.037723925 0.0482878014 0.0843338072 0.136019036
      0.261280388 0.261280388 0.261280388 0.18463935 0.12691173
      0.0589143001 0.0544497482 0.160839111 0.178299144 0.220890358
      0.220890358 0.161060721 0.143932313 0.220890358 0.123567387
      0.103118844 0.157734543 0.164486676 0.128054053 0.208296582
      0.141215071 0.0969787911 0.106809065 0.101478368 0.132230729
      0.179388866 0.220890358 0.107057296 0.0519138649 0.045945432
      0.111355677 0.220890358 0.220890358 0.220890358 0.220890358
      0.196261555 0.0692613423 0.0961262584 0.119689107 0.149983391
      0.189173371 0.15918541 0.21377027 0.220890358 0.220890358
      0.156466097 0.187502429 0.217348486 0.204044744 0.110479705
      0.0807500705 0.068272844 0.0839375705 0.114499167 0.217348486
      0.152200878 0.208022192 0.192579463 0.155706838 0.0954845399
      0.173518285 0.148826405 0.217348486 0.169788256 0.21342428
      0.217348486 0.217348486 0.173196152 0.0846085995 0.0622283258
      0.102432124 0.107273899 0.217348486 0.166673094 0.217348486
      0.217348486 0.190887794 0.129614905 0.158506498 0.141207874
      0.14985247 0.0820678845 0.137181729 0.144017726 0.129839018
      0.200806841 0.118731216 0.209147319 0.190288767 0.17829375
      0.0625463426 0.0685243756 0.149365395 0.160575747 0.167126954
      0.209147319 0.177339762 0.125729904 0.188782573 0.164180309
      0.116546944 0.186507538 0.150727317 0.209147319 0.17611523
      0.16888015 0.199155137 0.190806106 0.198736876 0.106744871
      0.209147319 0.181350395 0.176329151 0.192785427 0.164395064
      0.115684785 0.209147319</_>
    <_>
      0.170219555 0.0646902472 0.100647412 0.130975962 0.145121887
      0.163528726 0.161937997 0.131229147 0.21129778 0.118947752
      0.101576887 0.213415906 0.212825924 0.213415906 0.187082335
      0.132284358 0.0931902751 0.203983977 0.190086931 0.117486112
      0.09758012 0.0961224437 0.190582573 0.133887947 0.213415906
      0.175066531 0.213415906 0.112074092 0.173214704 0.209571242
      0.158191383 0.213415906 0.213415906 0.148468882 0.151675552
      0.213415906 0.213739544 0.140735224 0.132141382 0.168815508
      0.213739544 0.111848973 0.0545362122 0.0723769516 0.120665014
      0.161119327 0.168598697 0.12915352 0.197419599 0.208783537
      0.14801909 0.0820810199 0.0990417376 0.152347609 0.180684984
      0.136867136 0.213739544 0.116256699 0.213739544 0.142727956
      0.137440756 0.213739544 0.20777607 0.132457659 0.153235406
      0.213739544 0.120355688 0.210461453 0.213739544 0.152392909
      0.213739544 0.213739544 0.104076549 0.19886148 0.198338121
      0.175070837 0.0964699164 0.104677245 0.100217365 0.0624394976
      0.0948558375 0.192596018 0.227552161 0.234973148 0.234973148
      0.165280536 0.12811026 0.130630314 0.0427745096 0.133642986
      0.142422557 0.234973148 0.234973148 0.226416558 0.140432954
      0.0665620565 0.115607865 0.0635544211 0.101559423 0.200632408
      0.234973148 0.234973148 0.234973148 0.234973148 0.0807130188
      0.128055364 0.0638947859 0.179882988 0.122084484 0.235861212
      0.235861212 0.235861212 0.148105994 0.0655974895 0.0830063447
      0.0755544081 0.175981715 0.235861212 0.235861212 0.192873463
      0.0801216885 0.094938688 0.0330363624 0.0696924478 0.121917039
      0.235861212 0.157641739 0.235861212 0.235861212 0.226239398
      0.137612745 0.159269884 0.11158821 0.0912875086 0.235861212
      0.0934332386 0.101602063 0.109663047 0.0942194238 0.146068707
      0.121594101 0.16988489 0.19266203 0.235861212 0.226206809
      0.226206809 0.216284126 0.122578084 0.15270628 0.0721043274
      0.154496446 0.118227631 0.154255539 0.226206809 0.218988568
      0.19619745 0.10343045 0.106099814 0.0803335458 0.13046737
      0.226206809 0.226206809 0.141180277 0.141664922 0.158118263
      0.16274412 0.131836504 0.103696123 0.168495283 0.128530741
      0.157161266 0.155283868 0.226206809 0.226206809 0.220197037
      0.151834488 0.06600786 0.093262814 0.150564328 0.187345818
      0.211385876 0.164492786 0.187773496 0.211385876 0.156767726
      0.0604578704 0.0819186717 0.0916540623 0.195131347 0.211385876
      0.211385876 0.193057984 0.158834592 0.183849081 0.111391239
      0.156864092 0.094010517 0.145474076 0.190642774 0.148727715
      0.205094635 0.211385876 0.186084285 0.101927117 0.0526760444
      0.128342643 0.206506476 0.194578603 0.1549391 0.15856944
      0.182924196 0.211385876 0.141394898 0.1420587 0.140560329
      0.186797753 0.206013218 0.0935657173 0.15009971 0.148571968
      0.137149498 0.111040145 0.1368559 0.116519652 0.168655977
      0.212984517 0.124881335 0.142531678 0.151026443 0.14083232
      0.158098474 0.212984517 0.212984517 0.212984517 0.212984517
      0.160810158 0.168511614 0.0597315691 0.153809771 0.145655125
      0.155026957 0.208501399 0.21019268 0.197774202 0.149788752
      0.127704486 0.0982595831 0.193585128 0.13073805 0.180635035
      0.212984517 0.212984517 0.194373608 0.162907243 0.0968683437
      0.13078782 0.112190083 0.119009905 0.163309708 0.107622646
      0.142822132 0.208848864 0.184603751 0.147240475 0.159104109
      0.152078837 0.204520956 0.164220229 0.17098546 0.189104512
      0.208848864 0.148204491 0.104407348 0.190704584 0.195126697
      0.0947288498 0.100523591 0.143605575 0.183977738 0.208848864
      0.208848864 0.187868387 0.193623751 0.208848864 0.186229602
      0.0931073427 0.190254971 0.180084616 0.12985149 0.121018812
      0.181827813 0.0928039625 0.103455856 0.147015303 0.172236964
      0.157012403 0.102554157 0.20241347 0.152470976 0.22031413
      0.14503485 0.157183886 0.190452203 0.22031413 0.22031413
      0.22031413 0.133336172 0.134558469 0.162349001 0.145040005
      0.143743604 0.0932474136 0.15278177 0.169418648 0.135882989
      0.22031413 0.22031413 0.22031413 0.216222033 0.129600614
      0.0905454606 0.108164646 0.177339584 0.208383471 0.17497988
      0.0755605325 0.0787937939 0.0643117651 0.0987260938 0.103011616
      0.238361582 0.238361582 0.238361582 0.204307064 0.121205576
      0.104121968 0.104750469 0.134628654 0.233695835 0.207209542
      0.238361582 0.238361582 0.11505273 0.125605971 0.129778981
      0.0902811959 0.116404884 0.133230686 0.182936221 0.238361582
      0.165491462 0.148480713 0.173684746 0.103641346 0.106692769
      0.15936783 0.191341639 0.230809882 0.182378337 0.163481653
      0.210493833 0.210493833 0.185380444 0.0858514458 0.119620025
      0.084637247 0.0697207674 0.0843408927 0.191705182 0.15020822
      0.210493833 0.137138322 0.168647453 0.163165435 0.0833140239
      0.109488621 0.143454432 0.149120286 0.210493833 0.210493833
      0.174400479 0.099609144 0.19921051 0.0889362246 0.199404433
      0.210493833 0.174578398 0.179927468 0.210493833 0.193180159
      0.204205662 0.210493833 0.125000879 0.210493833 0.16237922
      0.132126838 0.131423444 0.18277362 0.217464045 0.116967991
      0.131757528 0.152384728 0.127146438 0.0872458071 0.100955382
      0.143226221 0.142515197 0.217464045 0.170509115 0.217464045
      0.205954298 0.217464045 0.109534167 0.114168473 0.155949488
      0.141058266 0.199078783 0.190324396 0.172159597 0.145049244
      0.180875137 0.102906175 0.145107329 0.160916716 0.123976447
      0.15999718 0.209380075 0.217464045 0.206254512 0.217464045
      0.167712659 0.14608106</_>
    <_>
      0.110842638 0.106660701 0.138483882 0.122091383 0.163686708
      0.182422489 0.210669592 0.112264238 0.131257549 0.12692669
      0.150659934 0.210669592 0.168224528 0.144841507 0.13499476
      0.188850924 0.210669592 0.131005138 0.175812081 0.205588952
      0.178586543 0.13935931 0.124221325 0.166009784 0.210669592
      0.101310842 0.210669592 0.210669592 0.210669592 0.210669592
      0.210669592 0.107649602 0.16901724 0.163997546 0.181082502
      0.118680894 0.198501304 0.204838187 0.174837545 0.179034889
      0.1075674 0.138956562 0.206647336 0.0766090304 0.0783378631
      0.229229644 0.229229644 0.213398665 0.229229644 0.145251319
      0.0737582371 0.118237741 0.102586389 0.078707695 0.152648956
      0.229229644 0.229229644 0.171322256 0.130971268 0.155938774
      0.109722972 0.0893962607 0.11540591 0.229229644 0.229229644
      0.207627311 0.229229644 0.128803328 0.130774409 0.111288607
      0.124638051 0.113125585 0.136672512 0.165653765 0.175685629
      0.100067809 0.103072017 0.120917715 0.114738502 0.221290156
      0.183358371 0.181487739 0.155836165 0.114439823 0.0838472247
      0.0896462575 0.145346567 0.221290156 0.221290156 0.174875274
      0.221290156 0.170337364 0.138003215 0.166058093 0.197163746
      0.159494475 0.0799158961 0.204828322 0.167555496 0.221290156
      0.164196193 0.130655438 0.157745942 0.126109466 0.142913997
      0.221290156 0.221290156 0.193065017 0.152690381 0.129991621
      0.0964042097 0.0979055315 0.170493141 0.0918212011 0.1029687
      0.129023135 0.145848542 0.220241681 0.197184324 0.114591338
      0.0911995545 0.0706379116 0.1033528 0.141907021 0.155514449
      0.145441011 0.254526705 0.254526705 0.254526705 0.116881914
      0.110310644 0.0459900126 0.0766126215 0.135509863 0.187199697
      0.254526705 0.254526705 0.254526705 0.0978319198 0.0736363828
      0.0894406363 0.184055001 0.254526705 0.254526705 0.156986177
      0.112900771 0.0825304985 0.127909988 0.108355455 0.1719345
      0.165511087 0.183581129 0.207862213 0.186460793 0.170859382
      0.15095304 0.112806432 0.110226415 0.157135546 0.120434821
      0.136575162 0.208233073 0.208233073 0.208233073 0.104904726
      0.154487416 0.149393842 0.208233073 0.194107488 0.126650542
      0.208233073 0.196293965 0.208233073 0.206895143 0.202843964
      0.146632582 0.193753779 0.134262338 0.125373125 0.189567342
      0.190110967 0.174421743 0.0784022734 0.111061916 0.11844103
      0.0706470162 0.171350226 0.190054193 0.219997481 0.219997481
      0.175126433 0.138202682 0.176327124 0.161179751 0.0979042277
      0.118954137 0.101216152 0.219997481 0.219997481 0.166389167
      0.150399655 0.110468239 0.0903538242 0.0809930116 0.219997481
      0.215773642 0.206196472 0.219997481 0.198718041 0.219997481
      0.188477412 0.160899282 0.106006414 0.122792967 0.131370842
      0.194575042 0.0960738361 0.0855969414 0.0663823262 0.0969724208
      0.158180922 0.194378287 0.193826795 0.215648428 0.158802405
      0.154861942 0.121520571 0.0594215728 0.0937135369 0.185954958
      0.217519864 0.215786964 0.211008728 0.179229349 0.0907313973
      0.0537063889 0.0655110627 0.124827012 0.164256737 0.217519864
      0.213887826 0.216134861 0.196529195 0.197530568 0.129481032
      0.0715117976 0.1369524 0.213559434 0.217519864 0.198183596
      0.208939746 0.217519864 0.208900645 0.126642138 0.0452278443
      0.0590301678 0.116359912 0.183519199 0.175858974 0.170397863
      0.17688632 0.208900645 0.129212826 0.0646410659 0.0744838715
      0.0860432088 0.150665939 0.195848793 0.200260863 0.208900645
      0.183327615 0.112330921 0.101719499 0.208900645 0.166952789
      0.191870883 0.147787809 0.144430265 0.208900645 0.208900645
      0.208900645 0.183949217 0.204461858 0.208900645 0.154279411
      0.16384913 0.140989885 0.208900645 0.174874038 0.165315166
      0.190088108 0.074714534 0.0871952549 0.0484927408 0.0315810218
      0.0725763962 0.134902522 0.248889431 0.248889431 0.248889431
      0.120413549 0.0596373267 0.0298493318 0.0449095331 0.0847795457
      0.157223105 0.248889431 0.236438528 0.190571606 0.0995595902
      0.0878729895 0.0701907054 0.0668370798 0.248889431 0.248889431
      0.248889431 0.248889431 0.248889431 0.0786820278 0.0720479265
      0.0835864246 0.114184998 0.201206118 0.248889431 0.149429306
      0.228485391 0.228485391 0.0641076043 0.0886353105 0.114864096
      0.110185012 0.158346534 0.203414604 0.177034214 0.197300732
      0.228485391 0.0552338473 0.120007113 0.12144725 0.0734378844
      0.228485391 0.228485391 0.107941553 0.100390635 0.119761251
      0.0681210756 0.12925221 0.190849558 0.204518497 0.228485391
      0.208362699 0.154215172 0.115433469 0.184485584 0.136307612
      0.18487981 0.158013269 0.134800658 0.228485391 0.228485391
      0.221184999 0.0802308843 0.141365424 0.172786936 0.170399696
      0.11925777 0.0754960999 0.127781019 0.221184999 0.221184999
      0.0643808767 0.104570486 0.146462798 0.221184999 0.165146485
      0.143098205 0.172764063 0.221184999 0.154372379 0.184079885
      0.221184999 0.158106878 0.207483768 0.0928929895 0.0878951028
      0.123580284 0.179403931 0.150903657 0.150399581 0.15774624
      0.171556085 0.221184999 0.153375566 0.179904521 0.221184999
      0.159818992 0.133902356 0.0902957246 0.154977009 0.132243797
      0.144203901 0.115377568 0.168118864 0.112555392 0.211471766
      0.113538235 0.103111632 0.1678655 0.12972258 0.100082412 0.1414316
      0.215202764 0.210775182 0.186869994 0.21450676 0.215202764
      0.215202764 0.184492722 0.148396075 0.0865091011 0.100220524
      0.122332446 0.199344546 0.215202764 0.190431938 0.215202764
      0.179471046 0.110230371 0.0932933241 0.215202764 0.215202764
      0.211628467</_>
    <_>
      0.123536222 0.123745188 0.156259745 0.210955173 0.180703387
      0.186665103 0.0946064889 0.112184905 0.103594296 0.122901663
      0.14236699 0.183519796 0.141408056 0.198928729 0.210955173
      0.161370024 0.174114525 0.125586465 0.187717721 0.106031276
      0.198814347 0.191890046 0.151789293 0.210955173 0.0841885805
      0.107427254 0.203086793 0.179308519 0.129228368 0.185030952
      0.103629969 0.210955173 0.210955173 0.210955173 0.176922888
      0.210955173 0.0836916417 0.0757167339 0.111898296 0.123042174
      0.224121258 0.0947008058 0.16939798 0.150717616 0.126884758
      0.145439297 0.166334882 0.150255129 0.147098392 0.224121258
      0.106641188 0.125350282 0.181607977 0.224121258 0.139179185
      0.167226568 0.127169356 0.118896984 0.224121258 0.12633495
      0.157339349 0.224121258 0.202280566 0.16109924 0.224121258
      0.22167711 0.212681413 0.224121258 0.107155539 0.0933661014
      0.161662474 0.224121258 0.146930203 0.203985453 0.197960481
      0.0523090214 0.0723917931 0.0790048242 0.0717478544 0.0537362806
      0.0964330435 0.153677151 0.24781239 0.24781239 0.115500234
      0.0785015374 0.0839526132 0.091904588 0.0748012587 0.0841435343
      0.168257788 0.24781239 0.24781239 0.143360972 0.18231149
      0.13361384 0.119205102 0.121661253 0.229459181 0.199083328
      0.24781239 0.24781239 0.204214141 0.100247353 0.109020337
      0.18476899 0.208300084 0.24781239 0.221952721 0.221952721
      0.221952721 0.176011562 0.168984175 0.0599937029 0.169749275
      0.154055014 0.221952721 0.190532342 0.149040475 0.11133422
      0.178071886 0.172299594 0.0816221982 0.221952721 0.221952721
      0.178483367 0.190620959 0.150798902 0.147211894 0.192588925
      0.12107531 0.0824846327 0.150658593 0.145731255 0.221952721
      0.103375614 0.0926717371 0.0985118002 0.176830843 0.152851388
      0.0904161111 0.221952721 0.170063674 0.114991538 0.19231461
      0.222620919 0.222620919 0.163370311 0.109823368 0.050583709
      0.0796479136 0.114936389 0.119511962 0.222620919 0.222620919
      0.222620919 0.177606642 0.114233665 0.105405517 0.0825653002
      0.0593208373 0.108093433 0.211777568 0.221161306 0.207389638
      0.140091538 0.128739268 0.0513106324 0.0924540088 0.202996984
      0.18832244 0.222620919 0.215252087 0.222620919 0.197371319
      0.206021205 0.118573494 0.072485134 0.111540206 0.201703921
      0.0648604259 0.154197574 0.113472469 0.0991183072 0.158572733
      0.191774562 0.210975811 0.208679885 0.13446331 0.131987095
      0.206910536 0.187980399 0.138156489 0.156021282 0.156882167
      0.204138502 0.143807873 0.203434706 0.0896813124 0.210975811
      0.140981078 0.0833657831 0.194625586 0.142703354 0.210975811
      0.191959187 0.100450002 0.140377969 0.210975811 0.210975811
      0.146829173 0.210975811 0.150146529 0.165733218 0.137190685
      0.197722599 0.151644781 0.0448693335 0.112251051 0.110934019
      0.0644790158 0.0902122259 0.189106926 0.169667304 0.159456402
      0.118338622 0.0945680141 0.172431141 0.124987006 0.0534569286
      0.128412694 0.222250938 0.222250938 0.200883225 0.153804481
      0.0997806937 0.127607524 0.0998463929 0.116807111 0.222250938
      0.222250938 0.210543096 0.144608811 0.222250938 0.150954276
      0.218122751 0.159043044 0.197701469 0.222250938 0.222250938
      0.222250938 0.221203342 0.209172457 0.158427179 0.147646621
      0.121870883 0.135729268 0.162123516 0.14290984 0.114643171
      0.160494104 0.205920532 0.153425708 0.147836789 0.118798561
      0.132478535 0.156098664 0.212198719 0.13547501 0.196324542
      0.182732552 0.209124967 0.212198719 0.141581491 0.203085035
      0.127333581 0.145715401 0.11558295 0.188359797 0.199224427
      0.184421718 0.212198719 0.148934811 0.185544714 0.145821095
      0.212198719 0.0930873156 0.150221765 0.146244243 0.102854684
      0.184065729 0.200693771 0.130798563 0.123119339 0.121771067
      0.176768616 0.125002325 0.210962757 0.138085961 0.0959513783
      0.119923599 0.136429772 0.210962757 0.210962757 0.210962757
      0.210962757 0.152487502 0.192796454 0.181769893 0.171122164
      0.125049204 0.134976789 0.105973952 0.159546584 0.0969296023
      0.192627639 0.210962757 0.160952374 0.166912526 0.210962757
      0.195144981 0.210962757 0.166281521 0.145612255 0.199725211
      0.135231093 0.0866881087 0.102637671 0.100761257 0.105268076
      0.148367345 0.10945709 0.201904565 0.22013782 0.181251362
      0.096136786 0.0760946125 0.0985953361 0.122452475 0.174326688
      0.160435468 0.22013782 0.201346651 0.0908828974 0.148828745
      0.120647348 0.197523013 0.156696796 0.22013782 0.165627852
      0.22013782 0.22013782 0.204032004 0.22013782 0.115811713
      0.207048282 0.167339459 0.187283203 0.141878143 0.22013782
      0.125640556 0.0953109637 0.0911201835 0.125588492 0.211190283
      0.152359456 0.104518622 0.189785838 0.163240448 0.147824094
      0.120910905 0.179212734 0.138161153 0.20293057 0.141409338
      0.130312398 0.180559382 0.216958165 0.191008762 0.109934971
      0.10376364 0.0900555551 0.216958165 0.216958165 0.160356492
      0.152601615 0.202489167 0.147733256 0.114475407 0.17839855
      0.134757906 0.216958165 0.216958165 0.216958165 0.214348227
      0.195724458 0.147724792 0.220625326 0.220625326 0.173031539
      0.0916688368 0.0762430057 0.122732118 0.111054629 0.153389961
      0.19854793 0.179226249 0.220625326 0.148170263 0.093896091
      0.138257489 0.165164337 0.160410032 0.165435374 0.117516823
      0.220625326 0.15293543 0.0872411504 0.194064006 0.182271808
      0.162794366 0.161975354 0.220625326 0.204309016 0.220625326
      0.220625326 0.0995918065 0.157380223 0.111115985 0.152786195
      0.149725765 0.18810688</_>
    <_>
      0.196613878 0.136164203 0.149439573 0.160409212 0.14277558
      0.0930247456 0.110536955 0.100326061 0.155306935 0.202236801
      0.197290048 0.175261661 0.162359893 0.168382525 0.192707136
      0.0967469513 0.0932776928 0.153291821 0.203447476 0.181057274
      0.113108642 0.213216141 0.213216141 0.149967626 0.191243351
      0.133515611 0.16229783 0.20250079 0.213216141 0.213216141
      0.213216141 0.213216141 0.17078118 0.12627089 0.107172452
      0.112472527 0.156882435 0.231442884 0.231442884 0.104410999
      0.146837205 0.124339037 0.0899802297 0.0672376305 0.140343994
      0.139065877 0.201835513 0.231442884 0.177338034 0.207616448
      0.113723464 0.0776584968 0.130886465 0.161292419 0.157364756
      0.231442884 0.231442884 0.109807298 0.200923845 0.0789048821
      0.157732084 0.0834162384 0.142289594 0.158566266 0.231442884
      0.231442884 0.195845112 0.205215037 0.119167492 0.147983551
      0.18825233 0.0921102315 0.190945297 0.130304962 0.211112544
      0.169605821 0.151515275 0.159445554 0.0583842993 0.0873504803
      0.174499989 0.171511725 0.108006574 0.147406146 0.160440296
      0.175026566 0.211112544 0.0922082514 0.134235486 0.211112544
      0.187155902 0.210754678 0.195752755 0.205223277 0.099589549
      0.136334881 0.107637644 0.102650724 0.139160573 0.211112544
      0.176112041 0.150105745 0.211112544 0.165464282 0.203317881
      0.188340664 0.158387959 0.211112544 0.159022063 0.133146122
      0.116172276 0.193188995 0.130658433 0.0609173328 0.0883022919
      0.0847519934 0.131121472 0.139037922 0.224258587 0.255384326
      0.195550635 0.146053389 0.0729451552 0.0871727839 0.144580424
      0.119923286 0.183695987 0.223913833 0.289130867 0.284848273
      0.0940935537 0.0657826215 0.0760166273 0.0727076307 0.10632465
      0.0982531086 0.265613854 0.289130867 0.289130867 0.210345596
      0.0787005424 0.113777846 0.0898898393 0.0683354288 0.334668249
      0.301484048 0.182231113 0.0823764652 0.0604224131 0.0177140106
      0.0129176714 0.0559116341 0.334668249 0.334668249 0.0977702439
      0.123218924 0.0600042455 0.0681499541 0.0392359272 0.0242233239
      0.102768868 0.334668249 0.061854858 0.192966267 0.334668249
      0.214177147 0.0287309904 0.0153163504 0.00733488472 0.0160562396
      0.0264219344 0.0659685358 0.159984499 0.334668249 0.125504136
      0.0376167297 0.0157257579 0.00807038695 0.0205529965 0.0629961789
      0.348060817 0.0784821585 0.0123938872 0.00367142074 0.0183152743
      0.0463279374 0.0519508235 0.25109303 0.348060817 0.348060817
      0.0554946326 0.034337502 0.00758678094 0.0533728078 0.0420337804
      0.0387506485 0.229978725 0.348060817 0.196951389 0.024390243
      0.0027298776 0.000530355435 0.000295431702 0.0013828458
      0.00592994597 0.0639505684 0.348060817 0.281785935 0.0288280975
      0.00162904547 0.00050540641 0.00232553994 0.00128597743
      0.00214769132 0.0894302428 0.348060817 0.16648148 0.157776758
      0.162053347 0.210547566 0.164070696 0.0957704857 0.0938484147
      0.0762969032 0.153838396 0.142331004 0.153361276 0.175923705
      0.210547566 0.180832744 0.210547566 0.106572285 0.123549521
      0.123893701 0.188806355 0.127627373 0.141267866 0.152289599
      0.157389164 0.209365651 0.197071046 0.0965575054 0.210547566
      0.141157344 0.210547566 0.167644531 0.16467078 0.210547566
      0.210547566 0.186822146 0.144141376 0.205549493 0.135029688
      0.10593649 0.171632782 0.132509336 0.175229684 0.0928518847
      0.222571447 0.222571447 0.0947934613 0.155418336 0.118481822
      0.222571447 0.144744694 0.155584216 0.0834704712 0.222571447
      0.222571447 0.0882075578 0.14073202 0.162979648 0.138435096
      0.105323814 0.222571447 0.221323937 0.203636244 0.139404804
      0.101037525 0.167956069 0.195200399 0.222571447 0.208842576
      0.222571447 0.0915930569 0.141487271 0.138850495 0.155735493
      0.133990586 0.176134199 0.186911359 0.180401489 0.106450714
      0.176396325 0.163201034 0.0592505001 0.154650971 0.138597861
      0.187112898 0.220668539 0.220668539 0.163097739 0.126623094
      0.186625674 0.0599655807 0.172185138 0.162517801 0.19871074
      0.189921513 0.188712925 0.125115842 0.183934763 0.13251248
      0.119449891 0.136390984 0.0939156488 0.20738399 0.220668539
      0.220668539 0.156546757 0.150257081 0.220668539 0.160865292
      0.11891111 0.0154496599 0.182563439 0.365320295 0.270813018
      0.06141923 0.0245592538 0.029424062 0.0164088663 0.0195793584
      0.0142009435 0.223753333 0.365320295 0.169746861 0.0263914149
      0.00719841942 0.00107066892 0.00902523845 0.006651056 0.0127032893
      0.295464098 0.365320295 0.261658251 0.0686718822 0.00830681343
      0.000410987035 0.00180217577 0.00396985002 0.00830136798
      0.179482415 0.365320295 0.273290515 0.0449216887 0.00551132532
      0.000859839318 0.00159642892 0.00218941225 0.323801249 0.323801249
      0.278671473 0.011509724 0.00398630742 0.0010590615 0.000509727572
      0.000667385524 0.157851979 0.323801249 0.300311774 0.0735454857
      0.0105528412 0.00486153085 0.00373494881 0.00420173304
      0.00690541323 0.323801249 0.323801249 0.253476441 0.1462363
      0.0695203245 0.0880262107 0.0256612375 0.016388515 0.00546870567
      0.0709435344 0.323801249 0.127189547 0.0776857883 0.060488712
      0.0807239711 0.0379395261 0.0483697578 0.0215576645 0.168247551
      0.330748528 0.231557921 0.0332631804 0.00491336314 0.019415101
      0.0214624349 0.00785044581 0.0776510984 0.330748528 0.330748528
      0.178903908 0.0176138598 0.00571836298 0.0205955692 0.029043356
      0.0148976976 0.0692550465 0.330748528 0.330748528 0.078864418
      0.0792787001 0.0206223987 0.120019436 0.0189264212 0.0465452
      0.0595667884 0.27112639 0.330748528 0.0744634271 0.0577979684
      0.010737489 0.0977824032 0.0334957466 0.0433221273 0.0462756194
      0.330748528</_>
    <_>
      0.364207357 0.0387415029 0.014036729 0.00313209882 0.0278210454
      0.01735783 0.0485386327 0.203628197 0.364207357 0.364207357
      0.0256751161 0.0115674073 0. 0.0299743451 0.0167417713 0.066716224
      0.34455204 0.364207357 0.107854605 0.0198111646 0.0033397167
      0.00164210307 0.00397712504 0.0187356267 0.0647467226 0.160883352
      0.221041173 0.179286703 0.0168175139 0.00496259099 0. 0.003630789
      0.0139422882 0.042812109 0.188551888 0.364207357 0.31043613
      0.0342995636 0.0171144474 0.00710862549 0.00613794941 0.0292408504
      0.0657311231 0.234416977 0.339697272 0.339697272 0.0393341929
      0.0302210301 0.0266504437 0.0143380798 0.0504377075 0.0711435676
      0.299218833 0.339697272 0.190181971 0.0263726525 0.00448339712 0.
      0. 0.000253854028 0.0151915038 0.0976984948 0.339697272
      0.307440251 0.0322339199 0.00584431272 0. 0. 0.000326383772
      0.013228395 0.136519909 0.339697272 0.318674207 0.0383105576
      0.0267974511 0.0245939735 0.0106848525 0.0335245132 0.0937259346
      0.251456499 0.318674207 0.312587738 0.0387248993 0.0411339886
      0.0405021831 0.014212871 0.013890299 0.0561262108 0.304469973
      0.318674207 0.247564778 0.0434368104 0.00791586936 0.000683911727
      0.0010443452 0.00465163542 0.0164018422 0.18919155 0.318674207
      0.263957351 0.035981033 0.00739478553 0.00150534941 0.000626598427
      0.000691167836 0.0104806079 0.20918034 0.318674207 0.167012572
      0.0889620259 0.0389233902 0.0566083267 0.0473434515 0.0253866203
      0.0238371268 0.190318748 0.345868319 0.189958513 0.100956954
      0.064880386 0.100126214 0.0485629365 0.0401350744 0.0412494317
      0.132657409 0.345868319 0.270798475 0.0471933447 0.0177631844
      0.0196791925 0.012446654 0.00777797587 0.0109468559 0.236528799
      0.345868319 0.311375886 0.0471078344 0.0156427324 0.0286958423
      0.0143701937 0.0208777431 0.0317792706 0.345868319 0.345868319
      0.213261411 0.0948098227 0.0953123644 0.108837552 0.108938485
      0.113446802 0.0738532916 0.155848652 0.216129556 0.157516867
      0.167793453 0.129204243 0.0726894438 0.117695346 0.0990322232
      0.16203104 0.140051782 0.15538469 0.25576213 0.161762342
      0.118681855 0.0905723646 0.155811355 0.149043426 0.166370854
      0.25576213 0.25576213 0.25576213 0.231755376 0.145034611
      0.040700499 0.0608178936 0.086958088 0.222398743 0.25576213
      0.25576213 0.16909638 0.165989563 0.145521268 0.143332526
      0.211456671 0.109018549 0.0820501074 0.112463497 0.169847682
      0.211900905 0.211900905 0.142557263 0.160968333 0.176344663
      0.138267606 0.106976904 0.140027508 0.177316085 0.16786319
      0.211900905 0.16274932 0.140798405 0.198853001 0.164439529
      0.106157325 0.183424816 0.179305509 0.211900905 0.211900905
      0.120056137 0.202428699 0.211900905 0.147597641 0.0851237103
      0.193196043 0.164167091 0.321527541 0.321527541 0.109856248
      0.0199268013 0.00449473131 0.00281628687 0.00597545831
      0.00524710398 0.0802261978 0.321527541 0.321527541 0.0495128967
      0.00740554417 0.000363320258 0.000441823446 0.00301291561
      0.0309656207 0.240561545 0.321527541 0.321527541 0.103015095
      0.0147098815 0.00911324471 0.00995621365 0.00896442868
      0.0201512203 0.121907808 0.321527541 0.321527541 0.103812926
      0.00223320676 0.0121024959 0.0129656577 0.0225988589 0.0512632616
      0.220943838 0.32894823 0.32894823 0.0413805954 0.00267294445 0. 0.
      0. 0.0013465127 0.170352146 0.32894823 0.32894823 0.0562494248
      0.00121497479 0. 0. 0.000838218606 0.0135250501 0.170237929
      0.32894823 0.288989156 0.0820593089 0.0112234065 0.0187868625 0.
      0.00115652464 0.023780575 0.231810018 0.32894823 0.32894823
      0.0920269266 0.00295733497 0.0133099314 0. 0.00015348797
      0.0221947599 0.148377642 0.303868413 0.303868413 0.193142861
      0.0287455134 0.00961076654 0. 0.00272807921 0.0125170257
      0.0856504142 0.303868413 0.303868413 0.212981939 0.0316371843
      0.00701253116 0. 0.0289271455 0.0572564453 0.123730011 0.303868413
      0.303331882 0.185388207 0.0915879011 0.0432821847 0.00454229303
      0.00707715424 0.0105535761 0.0808526501 0.291258514 0.303868413
      0.263133526 0.131741017 0.0668269247 0.00980416499 0.0244191363
      0.0494873449 0.0948440507 0.0901402608 0.131793439 0.182132095
      0.281149834 0.168130845 0.0407102257 0.010777792 0.00359387859
      0.0139960172 0.101062313 0.176933855 0.312215686 0.312215686
      0.244444296 0.0692476407 0.0230801962 0.0234951042 0.0275121443
      0.0586235113 0.0957113281 0.312215686 0.312215686 0.176914513
      0.0306988452 0.00812526327 0.00355965272 0.0104107196 0.0822788402
      0.201383665 0.312215686 0.312215686 0.196206987 0.0620597564
      0.0249734726 0.0236995164 0.0158844739 0.232095137 0.0883221254
      0.101464018 0.0848457515 0.102323979 0.114214718 0.0898385495
      0.217897296 0.269786358 0.269786358 0.130826876 0.269786358
      0.211334333 0.11626149 0.120060131 0.0845845714 0.165548176
      0.269786358 0.126138702 0.130812645 0.211117432 0.115783647
      0.121643834 0.134733021 0.0963574573 0.0871332437 0.120309345
      0.0784379095 0.221856624 0.269786358 0.269786358 0.205922514
      0.0723550096 0.0598032214 0.0596223474 0.112488814 0.209647298
      0.133863166 0.111075267 0.0985612124 0.0761655197 0.0874470472
      0.1295183 0.224848628 0.224848628 0.224848628 0.174320489
      0.147640541 0.0991239175 0.0834961087 0.0625287518 0.143605039
      0.224848628 0.224848628 0.133922219 0.183715254 0.186096996
      0.137561396 0.130745441 0.104337856 0.191786513 0.224848628
      0.151168302 0.224848628 0.201317534 0.189644903 0.12352372
      0.146127418 0.0829935148 0.191965073 0.224848628 0.189567924</_>
    <_>
      0.1944471 0.11834383 0.0766537637 0.0967670083 0.184548587
      0.0749227926 0.0551720671 0.0409509875 0.141483083 0.289628953
      0.175111994 0.289628953 0.283872664 0.289628953 0.0638895705
      0.093543537 0.112363011 0.271836609 0.0575970225 0.053827852
      0.0563986525 0.123158902 0.289628953 0.0651553497 0.0546238199
      0.0225283541 0.0471201465 0.0348670185 0.121035352 0.289628953
      0.289628953 0.289628953 0.103161901 0.0514352806 0.039540939
      0.051075343 0.137733683 0.0573692061 0.0529977195 0.0653692037
      0.219366923 0.193517998 0.285074383 0.274954766 0.249671191
      0.296115577 0.0734109357 0.112046257 0.0601453334 0.0800609365
      0.0952434391 0.304298878 0.304298878 0.304298878 0.0334584974
      0.0166525934 0.0452368855 0.151310444 0.304298878 0.198971599
      0.0812100545 0.067753084 0.0505536906 0.132201582 0.0434014499
      0.0252786092 0.0603466257 0.135481432 0.0316107497 0.0496210046
      0.0413939767 0.202195227 0.347067386 0.0229933318 0.00563942408
      0.00363440299 0.00559678068 0.00291952561 0.0259696413 0.119710639
      0.347067386 0.347067386 0.073867172 0.0238369144 0.0126951654
      0.0203993972 0.0029208865 0.0170241408 0.121430449 0.347067386
      0.288711607 0.0753708705 0.0181460008 0.0311146434 0.0267277509
      0.0126801599 0.0155084524 0.0711703002 0.347067386 0.347067386
      0.100247972 0.0240147691 0.021119263 0.0144644082 0.0209798459
      0.0116214035 0.0877924785 0.347067386 0.297458142 0.122170046
      0.015208791 0.0136756366 0.0537442751 0.0402066447 0.0269005634
      0.107579812 0.297458142 0.297458142 0.296378672 0.131674156
      0.083424896 0.139617339 0.0584909134 0.0380503982 0.0526597165
      0.297458142 0.297458142 0.0700584203 0.0351350196 0.0487855785
      0.168755665 0.0811009109 0.0230516624 0.0786876976 0.219864786
      0.186068103 0.128444418 0.167080447 0.297458142 0.297458142
      0.105786212 0.0365481265 0.018522745 0.125268251 0.321990699
      0.0808315501 0.132611036 0.0405182466 0.278386921 0.232733145
      0.107812129 0.103687383 0.321990699 0.321990699 0.0279224105
      0.0472832769 0.0317218155 0.0859561488 0.0785933509 0.0762864873
      0.0670540854 0.321990699 0.132470161 0.0366268679 0.059210442
      0.0566724502 0.321990699 0.321990699 0.0542041361 0.0172243752
      0.060353931 0.091953449 0.0105497399 0.0173796155 0.0237329956
      0.317958891 0.0982553661 0.0327728055 0.0214721132 0.113172457
      0.277830571 0.0317292474 0.00539416354 0.0048804488 0.0622423254
      0.144336164 0.143419415 0.170221701 0.277830571 0.277830571
      0.0731064454 0.067465201 0.0385735482 0.0866487846 0.17466709
      0.160609886 0.245974779 0.277830571 0.107849851 0.00988405012
      0.00538492249 0.00238405191 0.0276962537 0.116555147 0.156490922
      0.168308496 0.273663908 0.24996686 0.0191440918 0.0271520261
      0.0248169303 0.0614615232 0.155171037 0.277830571 0.277830571
      0.277830571 0.042825792 0.0194262881 0.0355820134 0.0399592184
      0.269497186 0.124255762 0.052858714 0.0373292305 0.046947591
      0.0169183444 0.0240793098 0.00982386339 0.091637738 0.269497186
      0.269497186 0.261081845 0.0694526955 0.0233735554 0.156042293
      0.0513420813 0.0214299783 0.0297311898 0.183046401 0.0944647491
      0.217259854 0.269497186 0.269497186 0.210305527 0.0425075442
      0.013630325 0.0783388689 0.269497186 0.252054274 0.269497186
      0.269497186 0.269497186 0.0133090634 0.0225866064 0.0338178799
      0.227014139 0.403638452 0.164809197 0.0248965397 0.00922398549
      0.00406961096 0.0058985739 0.0348505899 0.0429277532 0.0819720104
      0.249989435 0.120022953 0.0638111308 0.0273934025 0.00755399466
      0.185384125 0.0978822336 0.112954699 0.403638452 0.403638452
      0.168491274 0.0651547536 0.115694702 0.147323027 0.19905141
      0.109432675 0.0394290984 0.0758192539 0.161728635 0.116943188
      0.104823671 0.104369231 0.298849553 0.166790932 0.0302682202
      0.0364156067 0.0786825567 0.165173486 0.115117274 0.0929679945
      0.122951835 0.261572838 0.297869861 0.0862073526 0.113823727
      0.125288248 0.0685105398 0.135445386 0.260210782 0.231137291
      0.297869861 0.297869861 0.0387587212 0.0299805067 0.0300801452
      0.112271279 0.060513977 0.0572291799 0.104696289 0.297869861
      0.297869861 0.0700573549 0.0718748719 0.100576386 0.108173318
      0.104241431 0.101837479 0.168826059 0.297869861 0.0494619906
      0.059872143 0.0765150636 0.208593667 0.262457192 0.121532872
      0.030128004 0.0397064723 0.0658022463 0.025232017 0.0562888719
      0.123539768 0.262457192 0.262457192 0.130238131 0.0616986528
      0.0587794259 0.0563975833 0.191158578 0.127923384 0.139783025
      0.15518032 0.262457192 0.135275811 0.119064651 0.0771571323
      0.239562869 0.110480584 0.136941537 0.208025634 0.262457192
      0.262457192 0.262457192 0.235292569 0.134533867 0.227368146
      0.0488609076 0.0260847304 0.0973735973 0.30662328 0.30662328
      0.0766017959 0.00958692282 0.0284062698 0.156744406 0.0476185456
      0.0213686377 0.0318666995 0.118075095 0.223938361 0.0495227128
      0.00550313015 0.0251878817 0.0935915858 0.167807385 0.215360597
      0.251719087 0.30662328 0.30662328 0.0754086599 0.0191952214
      0.122450449 0.30662328 0.216089815 0.178034261 0.101027414
      0.105935439 0.254570246 0.0430984683 0.0106239682 0.0329579003
      0.276807219 0.113695987 0.22679548 0.150013536 0.0332185216
      0.0385827832 0.0277648848 0.00468725292 0.00565423956 0.0374599695
      0.295254797 0.295254797 0.290960222 0.0505785905 0.0251264926
      0.0179288611 0.00818223972 0.00788515341 0.0760426745 0.295254797
      0.295254797 0.263775378 0.0718819499 0.133795753 0.135007098
      0.0493205488 0.0426045544 0.129363894 0.295254797 0.295254797
      0.295254797 0.166429356 0.0906277448 0.10953524 0.0694682524
      0.0544420779 0.116186216</_>
    <_>
      0.219570458 0.194546893 0.096678257 0.169036716 0.242212117
      0.0516868718 0.0260309763 0.0265792273 0.0986577645 0.282189488
      0.126991659 0.157478273 0.287905544 0.287905544 0.141909361
      0.119963363 0.114830472 0.287905544 0.0494633131 0.0378336422
      0.0459165648 0.190531895 0.287905544 0.107570268 0.0257972758
      0.0194085427 0.0292862356 0.0328327678 0.0348915011 0.0782015175
      0.287905544 0.287905544 0.253828287 0.0648196489 0.0251639299
      0.0405307747 0.332690686 0.0780332983 0.104233995 0.11875163
      0.18159613 0.106953107 0.205868468 0.134002268 0.332690686
      0.332690686 0.0995030329 0.0863176659 0.121599793 0.136389673
      0.0971571654 0.0745359734 0.122373804 0.332690686 0.0615052693
      0.0388575792 0.0458842143 0.0694886073 0.310643762 0.0769998729
      0.0237670671 0.0524421595 0.0698127747 0.143601671 0.0852632374
      0.052403491 0.107707404 0.332690686 0.166278511 0.00871100742
      0.0428001955 0.179166481 0.296791285 0.0651225001 0.0344237052
      0.00622514915 0.011648857 0.00818050001 0.00492490549 0.0987546295
      0.296791285 0.296791285 0.102083184 0.0773359165 0.0303877704
      0.0444889702 0.0619508848 0.0498306006 0.207400084 0.296791285
      0.296791285 0.108378828 0.0421573929 0.0081390338 0.0894264728
      0.102264926 0.100994356 0.191893518 0.296791285 0.296791285
      0.0701673776 0.054971721 0.0781142712 0.191452712 0.0889372081
      0.115974374 0.239040598 0.296791285 0.282576799 0.123769976
      0.0935419053 0.236036599 0.282576799 0.13574627 0.0301817209
      0.0670055524 0.184220642 0.180645257 0.184777379 0.141314372
      0.282576799 0.282576799 0.128670558 0.0851526111 0.146092832
      0.147263959 0.0274693351 0.053334333 0.0759734511 0.210426629
      0.282576799 0.192355126 0.0644836277 0.0470878556 0.0241229814
      0.0365000814 0.0666363388 0.0891707018 0.282576799 0.282576799
      0.158961892 0.0793884397 0.0609775558 0.0218459368 0.280571193
      0.0642809719 0.0286268629 0.0125152925 0.190833688 0.159078881
      0.155300409 0.280571193 0.280571193 0.280571193 0.0787517652
      0.0249349754 0.0231164396 0.143169105 0.062102031 0.186308056
      0.280571193 0.280571193 0.10792245 0.0142726647 0.0206871349
      0.0428773649 0.280571193 0.122708477 0.0510792956 0.122052781
      0.225867108 0.16728738 0.0631097406 0.0235140789 0.0279167499
      0.0677930489 0.0352059565 0.0397690423 0.267672122 0.280571193
      0.154617652 0.0120251654 0.0144709963 0.0141873313 0.036533583
      0.111481272 0.240640387 0.242919207 0.272887647 0.131628558
      0.0428236499 0.0640973598 0.111318685 0.272887647 0.272887647
      0.272887647 0.225017339 0.272887647 0.0892705843 0.0165437665
      0.0175141934 0.0151365921 0.0193754826 0.0724490732 0.18470946
      0.154153034 0.180198282 0.0993017033 0.0560843311 0.0661911815
      0.0892976448 0.166961744 0.272887647 0.272887647 0.19591625
      0.19541724 0.0398121886 0.00944827683 0.0268852618 0.0590451397
      0.274771094 0.164098918 0.0737863183 0.0445692763 0.0642597601
      0.0589840822 0.0409675054 0.0934093595 0.150632605 0.274771094
      0.274771094 0.0970137119 0.0766489506 0.120616682 0.191644594
      0.0135729993 0.0300647039 0.0253777709 0.202539355 0.0960356519
      0.208505228 0.274771094 0.274771094 0.274771094 0.0493617617
      0.10727641 0.0343699232 0.271211118 0.131975785 0.210243359
      0.274771094 0.274771094 0.0556029938 0.0261509363 0.0315944664
      0.0466144197 0.15558131 0.112435557 0.0269844346 0.0210623723
      0.0832062066 0.163202107 0.026741948 0.0409389548 0.110602304
      0.143766284 0.104281068 0.0715388134 0.0739052966 0.180697486
      0.355205268 0.215319619 0.28063488 0.0713145882 0.0941208676
      0.216695741 0.104068458 0.161803246 0.355205268 0.355205268
      0.116490901 0.102723144 0.0729702488 0.0483910181 0.112145476
      0.114240818 0.208323628 0.355205268 0.324228376 0.0826144665
      0.0531879291 0.0436703451 0.0556419045 0.0336862095 0.0249827001
      0.107535213 0.324228376 0.324228376 0.130092233 0.122091375
      0.0795194805 0.180081829 0.0767113641 0.0343269221 0.0558204241
      0.324228376 0.324228376 0.0332193822 0.0107307089 0.00769569911
      0.0384098999 0.00863177143 0.0285590515 0.057543125 0.324228376
      0.324228376 0.0855154246 0.0570262447 0.0570914932 0.124926016
      0.043908447 0.0621744059 0.0696199462 0.324228376 0.0454506762
      0.0395566709 0.0493798107 0.215167612 0.267050952 0.174319878
      0.120685764 0.072655946 0.0213858448 0.0896639079 0.059689153
      0.066365771 0.159056336 0.267050952 0.177741155 0.117706075
      0.0780923516 0.0274482481 0.154787838 0.0708039775 0.0574379228
      0.108530946 0.267050952 0.223803654 0.228340432 0.183406204
      0.267050952 0.183990642 0.197174415 0.082792595 0.0914113298
      0.259868771 0.246963188 0.226556048 0.206370726 0.15846628
